2708 128
0 -0.107443795 0.06361251 0.07026232 -0.10808145 0.007939861 0.032015633 -0.11761346 0.08285453 0.04865041 0.08984542 -0.07191241 0.13901627 0.13934346 -0.0051332274 -0.07017312 0.038392656 0.10987908 -0.034148823 -0.02390767 -0.075468704 0.07219108 -0.14154372 -0.0050945957 -0.10917765 -0.033739433 0.10832518 -0.04075715 0.0820937 0.12966211 0.12357173 0.1269188 -0.09814612 0.00060018105 0.06418078 -0.111681774 0.13085309 0.12221778 0.013399055 -0.06943627 0.073835604 0.015652632 0.070095584 -0.120774455 -0.10258558 0.06068417 -0.071443334 -0.028923541 0.061695587 0.142997 0.026506843 -0.036328826 -0.014788608 -0.044283513 0.1342836 -0.120751694 -0.022981245 0.03580831 0.010261617 -0.14334112 -0.12502573 -0.12705359 0.01645909 -0.045143917 -0.042200927 -0.05694206 -0.007029236 -0.067963324 -0.13912764 0.026813842 -0.10829421 -0.12962112 -0.115202464 -0.04544949 -0.08998191 0.052340593 0.05146167 0.12248288 0.04027415 -0.089192055 0.09833155 0.01976811 -0.13948417 -0.056669552 0.13942559 -0.09985652 0.012475587 -0.10389846 0.07838438 -0.10891785 -0.056470305 -0.13610993 -0.009388649 -0.0064529297 -0.010783282 -0.07008597 -0.07713867 0.14241801 -0.08020594 0.088987626 -0.078533925 0.11933225 0.09772859 -0.13277495 -0.055358134 -0.06915325 0.12981024 0.13364047 0.08159073 0.13120599 0.06428303 0.0006342882 0.12862748 0.116373144 -0.07812273 0.14010447 0.12799981 -0.06482686 -0.061125405 0.022400415 -0.0024521286 -0.022088474 0.1398755 -0.10038831 -0.08241295 -0.061311603 -0.13538852 0.065845 0.020540671
1 -0.004202839 0.003199098 -0.035680134 -0.04102917 0.108649984 -0.051745795 0.05330484 0.0008841 -0.054092903 -0.0702909 -0.1505332 -0.059921976 -0.049773023 0.070141256 0.018216174 0.104750596 0.12048871 -0.028881188 0.10113482 0.14187391 0.12625939 0.20505722 -0.12737739 0.09668803 0.010299403 0.12630156 0.113376476 -0.064083226 0.044435304 0.051052857 0.04050131 -0.0073980037 -0.065959945 0.020931786 -0.05721688 -0.120420575 -0.117637455 0.036772493 -0.10667626 0.06421161 -0.09010351 0.055454575 0.018343048 -0.12704799 0.06594882 -0.00828217 0.07817855 -0.11660875 0.0447875 -0.1301082 0.033274855 -0.14817113 -0.15328513 0.08771157 0.085534476 0.14012125 -0.035539936 0.02394198 0.0015220022 0.009825527 0.07960875 0.09006739 0.15646665 0.05092265 -0.07912193 -0.019733235 -0.021487633 0.0425942 0.08529055 0.0077252067 0.11730734 0.0025732308 -0.07348215 -0.079525515 -0.10767839 -0.054275904 0.04093613 -0.17029361 -0.17450371 -0.074880496 -0.057479735 0.031427246 0.11667673 0.10788689 0.019108096 -0.19252707 0.076620534 -0.09148089 0.018537857 0.024043817 0.09761979 -0.03427919 0.007948702 0.07089651 -0.0034324746 0.039634578 -0.09092869 -0.07653648 0.020462181 -0.0140552735 -0.1360279 -0.023054468 -0.20120947 -0.027912093 0.0746358 0.05967158 -0.047635198 0.047590137 -0.039549105 -0.11244327 0.14114098 0.08811706 -0.04608315 0.027452746 0.099135615 -0.03183099 0.060643908 -0.09868386 -0.1397813 -0.06382807 -0.20455346 -0.1098745 0.05555707 -0.019340005 0.13700812 0.021970952 -0.016079765 0.16993418
2 -0.059820488 0.07647838 -0.0005561637 -0.14752549 0.06255225 0.024975326 0.0791961 -0.11760262 0.07045728 0.05616247 -0.12547712 -0.0008686045 0.00016030435 -0.0688882 0.09634364 0.026363933 -0.07389212 0.034167342 0.15691453 0.015001861 0.09044353 0.18633746 0.10737012 0.074371845 0.063407466 0.009370501 0.11188908 0.0840095 -0.045329757 -0.12296763 -0.07726123 -0.05998554 0.048013907 -0.16507785 0.09790712 -0.04892368 0.107195005 -0.021938259 -0.0076495307 0.062667064 0.012428558 -0.07676452 0.020895617 -0.055093452 0.14807627 0.040641677 0.02090709 0.007603604 0.049372062 -0.09355088 -0.23247126 -0.051295094 -0.1635003 0.024754059 -0.16287357 0.116669625 -0.10878771 0.04337701 -0.08527675 0.022081845 -0.08118654 0.14322251 0.0052133277 -0.048988853 0.0607298 0.07982905 0.1101388 -0.010233069 -0.0107405195 -0.08099426 0.15689002 -0.09222146 -0.0440195 0.1232561 -0.054706067 -0.09088525 0.06917695 0.018084189 -0.040097322 -0.12838404 -0.13883056 0.017458536 0.014619644 0.023447236 -0.12150832 -0.036290757 -0.04090492 -0.02606489 0.13717468 0.034765314 -0.05912679 -0.03748995 0.007691502 0.04033563 -0.07239636 0.060420882 -0.01264669 -0.061082095 -0.14635909 -0.12207756 -0.15105598 -0.1357063 -0.03484943 -0.10246879 0.0958992 0.080562666 -0.03436035 0.089406125 -0.043372933 -0.13152796 0.09510679 -0.010961257 0.040212035 -0.10796496 -0.15387215 -0.051523983 -0.034350105 -0.013057849 0.015963018 0.06214096 -0.19232813 0.06467105 0.13796459 -0.10164064 -0.072158076 0.046968162 -0.13251767 0.106617264
3 -0.05727386 0.111442186 0.08278238 -0.056599602 0.004044421 0.08213936 -0.02033636 0.09270769 0.047332063 0.19020955 -0.08850929 -0.13626157 -0.080763124 0.04505772 -0.110307746 -0.11263004 -0.07449276 0.11961668 0.093348905 0.11261904 0.01232183 0.19068699 0.07216347 0.045661714 -0.009360172 0.11037604 0.114388995 -0.069487005 -0.11023161 -0.13681312 0.15731153 0.08769085 0.11003135 0.011832957 -0.10427028 -0.064771675 0.009051791 0.14606717 -0.15141974 -0.030718753 -0.09064453 -0.016105419 0.11204057 -0.05905947 -0.04458886 -0.024699407 -0.10729093 -0.054521177 -0.0015762143 0.0410647 -0.1542694 -0.0225204 0.08656739 0.030232407 0.029337436 0.0850947 0.06998938 -0.104404196 -0.108974576 -0.02794209 -0.014453418 0.120233476 0.023636 0.0098384945 0.08516214 0.07286377 0.035642426 -0.104982615 -0.003348878 -0.18127082 0.1623029 0.0009405287 0.15626392 0.056322362 0.031729113 0.0052026333 -0.1254727 0.079055145 -0.03454369 0.055183265 0.025066094 -0.012284317 0.047060438 0.09072656 -0.09476504 0.0754549 0.06821722 -0.017664962 -0.065740675 -0.06693373 0.023848528 0.074898906 0.039277382 0.16248657 0.0603564 0.03146334 0.04066434 0.017629243 -0.060242277 -0.018449122 -0.13767733 -0.16312285 0.06889692 0.08530098 0.08626948 -0.034856025 0.014832992 -0.08493612 -0.19413863 -0.09183531 0.040520564 -0.048568405 -0.020870797 -0.021220671 0.022263324 0.002639023 0.041477144 -0.19299008 -0.093347915 -0.051289026 -0.089630865 0.044173606 0.029068688 -0.082397364 0.14707313 -0.05963195 -0.007460059 0.19892308
4 -0.030248823 0.051973313 0.10938937 -0.044085033 -0.033909302 0.0565195 -0.04284166 -0.14428245 0.053597674 -0.004286665 0.047734726 -0.0384474 -0.12017584 -0.047407433 0.134483 0.08416039 -0.0431652 0.011674039 -0.06663387 0.117337205 0.054251295 0.107834734 -0.019528517 0.07325427 -0.045989867 -0.1005564 -0.029014576 0.06423599 0.020151589 0.03880078 -0.048711255 0.03820515 0.053977385 0.0066138874 0.0044116895 -0.18365923 -0.03533934 0.13366441 -0.07452743 -0.07094275 -0.15770993 0.10853221 0.09307213 -0.09587284 0.07961701 0.11828152 0.09070471 -0.052073736 0.068785235 -0.092369065 -0.027987324 -0.025505396 -0.07979574 -0.057879522 0.059701238 0.066257454 0.136219 0.082622364 -0.027397368 -0.11341061 -0.1140071 0.17137223 -0.018559279 -0.0089156395 0.078092806 -0.07332453 0.097706154 -0.090169676 -0.1125299 -0.076784946 0.16978763 -0.12008578 0.12437596 0.09288769 0.103401095 0.049013667 -0.0627665 -0.006804061 -0.15955718 -0.1626058 -0.0022129535 0.035882067 -0.09089489 0.13050681 -0.13978794 0.058615383 0.07192455 -0.07549887 0.11613784 0.102483936 0.16161893 -0.019543035 -0.16133071 0.1453408 0.04454998 -0.0778851 0.038430054 -0.04930194 -0.05037018 -0.022877485 -0.03581221 -0.15844876 -0.10569788 0.11268071 -0.0041150027 -0.107474916 -0.14109685 -0.09232687 0.059169672 -0.028076647 -0.0022825492 -0.06351147 0.14800557 0.061489508 0.10342423 0.052153986 0.048670165 -0.054239076 0.03479087 0.13107166 -0.09272345 -0.0014338976 0.03130721 0.045633398 0.12371478 -0.09067903 0.092061915 0.122376755
5 0.10425049 0.027895777 0.01920203 -0.039808728 0.10470559 0.09882963 0.045811478 0.10823002 -0.033862922 -0.034343287 -0.05688312 0.044477187 0.02223649 -0.078804255 -0.08821857 0.0075907223 -0.014801382 -0.14047983 0.1486254 0.04383678 0.16274983 0.014258274 0.12695885 0.0045171767 0.049636975 -0.07061925 -0.1080232 -0.10321389 -0.081526905 -0.10438012 0.04372964 0.06288086 0.13781698 -0.13999961 0.054553386 -0.09352095 0.0057319836 -0.07595828 -0.13130434 -0.055158608 -0.16408674 -0.00065004366 0.17258947 0.091054924 0.021934845 0.11124921 -0.060228087 -0.10034507 0.0483162 -0.0111062825 -0.15906133 -0.051069718 -0.046571836 -0.12527902 0.06059345 0.044543084 0.11387008 -0.030062255 -0.06200959 -0.053888794 -0.077251814 0.1544648 -0.025934173 0.03567043 0.030205514 0.051874325 -0.04569653 -0.038662143 0.008911897 -0.15543586 0.04748599 0.059787005 -0.019189963 0.059300568 -0.07000311 0.0013173963 0.06034025 -0.1394652 0.098055966 -0.12608959 -0.021769393 0.15825498 -0.11272994 0.062525004 0.020790773 -0.046574503 0.05335207 0.1570032 0.006312999 0.13730285 0.011239798 -0.04810518 0.04609274 0.17459379 -0.046077836 -0.20227005 0.059599414 -0.0103060035 0.08340626 -0.012711772 0.031829372 -0.12876227 0.02477369 -0.032209855 -0.0872264 -0.11042504 -0.1134903 -0.096995525 -0.11998986 -0.08802173 0.12190276 0.0028450722 0.063531324 0.11995889 0.10134921 -0.04738639 -0.07559591 0.025972707 0.09621197 -0.066545814 -0.08785937 0.03172836 -0.12260303 -0.19294408 -0.029737279 -0.06674372 0.012129498 0.15839711
6 0.1329317 -0.07602284 0.08044387 0.0061270758 0.121167116 0.07961344 -0.10991935 0.104282156 -0.02654576 0.087641075 -0.13816367 0.035774138 0.052743558 -0.06249129 -0.005381711 -0.10917864 -0.057484508 0.0144337 -0.013576262 0.12640722 0.13530456 0.16442478 0.037357543 0.13451779 0.069130205 -0.12071166 0.080889374 -0.054095075 0.05609314 -0.11294227 -0.045588415 0.10798031 0.104706325 -0.10611156 0.032673568 -0.0702137 -0.09368493 -0.054135785 -0.16226234 0.0292822 0.0017079833 -0.0703822 0.11197241 -0.07393492 0.11245336 -0.09629686 -0.0741066 -0.078580946 0.15074714 -0.09172931 0.029249549 -0.09583873 -0.09851542 -0.09682448 0.078422025 0.06708941 0.13559458 -0.10570102 -0.10153637 -0.14033459 0.079500794 -0.033662733 0.17428197 -0.003523933 0.04826039 -0.048067924 -0.0871825 -0.012113292 -0.12733327 -0.06977992 0.093761675 0.053971693 -0.018745182 0.09042348 -0.038182482 0.02943409 0.073287144 -0.08662871 0.066565394 -0.08282197 -0.06269443 0.09778358 -0.08970476 0.077716954 -0.121892355 -0.10537543 -0.029810265 -0.072985195 -0.011028675 -0.09607026 0.17080548 0.06197906 -0.10470368 0.008709258 0.006837394 -0.104513794 0.034095734 -0.09448223 -0.043131594 -0.09957364 0.03809635 -0.039980985 -0.056870956 0.07483334 -0.04532037 -0.123003274 -0.1260988 0.013902909 0.014109145 0.1474449 0.08024571 -0.17224246 0.033133194 0.04779692 0.013261256 -0.06443394 -0.032272242 0.057164967 0.0729115 -0.07293602 -0.16116764 -0.12502496 -0.09512353 -0.13701755 0.13113926 0.027999872 0.065221325 0.0037595364
7 0.063530244 0.069278516 -0.020391595 0.0252214 0.07567132 0.07560787 -0.07800778 0.07884098 -0.087287374 0.13491455 -0.14776674 0.030927414 -0.00967808 0.032821957 0.06935412 -0.032021847 0.10841649 0.021085178 0.15301755 0.057471216 0.16852847 0.07096187 -0.10269112 -0.12908939 -0.08966655 0.14295757 0.015837692 0.0011642043 0.10355734 0.014510951 0.06435918 -0.057188436 0.035499178 -0.0058206227 0.02980898 -0.11089063 0.046703268 -0.019909006 -0.15221082 0.10537696 -0.02349778 -0.054715317 0.09658152 -0.109037764 -0.051569525 -0.1397409 -0.02535179 -0.060289618 0.030585213 0.04596798 -0.22651628 0.03515052 0.022188537 -0.07448608 -0.044733524 0.024103682 -0.006607665 -0.05669372 0.10723493 -0.14681979 -0.119058006 0.14625229 0.039903037 0.07892351 -0.10451814 -0.005752156 0.120694734 -0.108264506 -0.05805059 -0.08450473 -0.05763177 0.0033293809 -0.0980114 -0.122581325 0.022068972 -0.027248045 0.033280298 -0.088146895 -0.062793046 0.007769615 -0.2051077 0.07093498 0.1509301 -0.04991655 -0.045792248 -0.068936236 0.016375301 0.1349986 0.14242119 0.10392217 0.005734202 -0.13385706 -0.10519786 0.10805249 0.035817906 0.04411446 -0.13361792 0.07601413 -0.063769534 0.039396208 0.025909783 -0.027709465 -0.09429603 0.0724114 -0.11264765 -0.05950683 -0.15638396 0.13084954 0.034021743 -0.0016550168 -0.061320625 -0.07399448 -0.07847978 0.018830635 0.086669095 0.070193954 0.13584691 -0.098806836 0.10247092 0.1172987 -0.072961584 -0.12825623 -0.07664085 -0.06775732 -0.041531906 -0.12513977 0.059984326 0.13194214
8 0.094841346 0.0021619797 0.048652124 -0.10501512 0.11352803 0.11436483 -0.02815348 -0.096059315 -0.07841697 0.1367166 -0.16959591 -0.045329314 0.049171302 -0.24773246 0.035311382 -0.0054174 -0.08489567 0.009994359 0.036492355 0.036012553 0.1332275 0.16844852 -0.018660463 -0.0682113 -0.05185983 0.041956224 -0.020634279 -0.103137724 -0.0088943625 -0.20036386 0.0753546 -0.010050224 0.111746766 -0.0025451437 -0.013863647 0.07499651 -0.12991808 0.037014555 0.11456643 -0.046000294 -0.05212199 -0.00057555985 0.12928809 0.05760103 0.02442252 -0.124084145 -0.039239347 -0.13588168 -0.04261385 -0.06828484 0.0028048698 -0.12639399 -0.17620106 -0.075879455 0.028229957 -0.08570469 0.15031406 0.033092476 -0.09221123 0.04513821 -0.13435966 -0.0025824297 0.10429126 0.026537593 0.012753754 -0.030053414 0.0026080108 0.10652246 -0.10937592 -0.09261538 0.13217588 0.020893546 0.1242105 -0.05212411 -0.019573519 0.04019155 0.1284222 -0.048600446 0.0056760474 0.014380816 -0.09203736 -0.046855386 0.027434872 0.092334844 -0.201149 0.031366587 -0.02079867 0.08292178 0.088838935 0.06870781 0.013372089 -0.04243254 -0.06629894 -0.0370087 0.07608079 -0.063389614 -0.06309775 0.05080202 -0.13206294 0.0490532 -0.046397757 -0.0008938202 -0.13188833 0.028657168 0.018032415 -0.11216133 -0.044003963 -0.049590908 -0.22097018 0.1129785 0.12121687 -0.03649097 0.05926143 0.06286686 -0.0093435785 -0.103697896 0.17067793 -0.099918514 -0.119340345 0.048818152 -0.1513686 0.020610023 -0.13194562 -0.018505294 -0.060821157 0.058898844 0.048616555 0.034055743
9 0.14732327 -0.0062327706 0.09483428 -0.10784696 -0.06807137 0.058274567 -0.11383077 -0.14010075 -0.13067883 0.04486517 0.04156397 -0.11296364 -0.009895883 0.018854445 -0.08328437 -0.05723879 -0.04906039 0.111917414 0.058051236 0.21242385 -0.09010201 0.048634075 -0.07175384 0.119855344 0.08771694 0.05154309 -0.06124431 0.108072005 -0.030286029 -0.0418474 0.042735606 0.053720064 0.100408 0.040387195 -0.085521884 -0.13641432 0.096666194 0.06509732 -0.12233462 0.083699904 0.07815484 0.010200445 0.06719369 0.118799955 0.06030989 -0.036728557 0.011911332 0.002833503 0.047649745 0.03214854 -0.20791873 0.13489366 -0.13844234 0.04995852 0.013957145 0.064199746 0.16744633 0.071124084 0.12149282 -0.12720276 0.018244145 0.06609998 0.18422619 -0.15197417 0.010827373 0.04562458 -0.09843971 -0.0800982 -0.09795104 -0.20687902 0.09068579 0.0519986 0.054103006 -0.015276969 0.05235798 0.02660468 -0.06898262 -0.015079628 0.006551292 -0.04119812 -0.1932531 0.1035127 -0.114204936 0.013943976 -0.09913702 -0.042778272 0.061236426 0.1546225 0.15112488 -0.002672795 0.09346902 -0.03096487 0.045941148 0.03887186 -0.09050988 0.04768696 -0.055840522 0.0013164949 0.071696475 0.07650867 -0.0014168586 -0.15561946 0.0038036513 0.07593409 0.039556883 0.021245964 -0.12052629 0.12970236 0.05635158 0.045970835 0.0943713 -0.10942283 -0.0009335978 0.05324216 -0.10153545 0.12257286 0.07316798 -0.09950376 0.013166559 0.089937314 0.021834183 -0.0814587 -0.018618401 -0.0031237428 -0.07771878 0.0017088444 0.11360462 0.050795756
10 0.025258418 0.060696542 -0.026947767 -0.06965968 0.044746414 -0.016886836 -0.08240113 -0.06053896 0.0015389704 0.11265869 -0.11114588 -0.050193816 0.046861444 -0.009123307 0.028650777 0.05775862 -0.01883711 0.05402607 0.04664309 0.17215662 0.031155095 0.11490726 0.086505435 0.044286877 -0.080334134 0.11644084 0.05269471 0.016418258 -0.015075969 0.06710794 -0.030976929 0.03153125 -0.0020318825 -0.055665214 -0.17635365 0.02595509 -0.090482205 0.0922054 -0.090935834 0.08521261 -0.08823768 -0.11846367 -0.07349799 -0.0873195 0.10957202 -0.08999684 0.077610336 -0.14180118 0.054674093 -0.062937245 -0.20836888 0.05332061 0.09620065 0.13173291 0.09338504 0.05105311 0.035242297 0.087215744 0.036509477 -0.061497957 -0.10817298 0.052170455 -0.009048873 0.18521492 -0.05639425 0.14939018 -0.0727781 -0.09638806 -0.058535602 -0.112297975 0.15988295 -0.15567578 0.07094116 0.055005483 -0.0013162516 0.029143812 -0.11984699 0.07717015 0.028083548 0.023161106 -0.11260463 0.11027757 0.0826145 -0.08199415 -0.21006034 -0.06024487 -0.04411087 0.029279975 0.16386922 0.15643138 0.0992538 -0.132416 0.05737541 -0.05144692 -0.053163804 0.031113727 -0.11913432 0.06728098 -0.06454907 -0.09886102 0.033793114 -0.063598976 -0.075361826 0.021593448 -0.0962682 -0.010157006 -0.11870668 -0.038962312 -0.20270248 -0.06092557 -0.003221412 -0.04088514 -0.047126465 0.03352863 0.09897306 0.050199166 0.11833822 -0.0065699825 0.03556539 -0.07500868 -0.102205046 0.11947836 -0.100624986 -0.088217475 0.11086866 -0.030509481 -0.105732664 0.1409244
11 0.076288536 0.111380234 0.00535294 -0.04948754 -0.039985772 -0.088497154 0.051286552 0.02681512 -0.116133586 0.07393894 -0.03507812 -0.07423344 0.12329323 -0.039491873 0.06510479 0.09181062 0.065283135 -0.013603333 0.09517559 0.008583154 -0.024989048 0.08220217 -0.027196985 0.046055883 -0.11740858 0.039971884 0.14375386 0.029640906 0.16344982 0.11935067 0.1888466 0.1113785 0.110013016 -0.17007644 0.03174963 -0.05049763 0.03954895 0.049430236 0.035711292 0.0003058967 -0.011204486 -0.034633335 0.06702495 0.05143526 0.11554545 0.019421736 -0.12898059 -0.11728598 0.005879171 0.018209385 -0.044794947 -0.08448501 -0.08575788 -0.11406689 0.08768988 0.13486294 0.020782975 0.018519916 -0.033396125 -0.016370201 -0.055599846 0.123714805 0.20047641 -0.03631208 0.102709375 -0.041663792 0.030786285 -0.000825785 -0.029815467 -0.24061249 0.07019871 0.020384584 -0.059098683 -0.07018229 -0.0014992086 0.011476691 0.12822558 0.06033344 -0.07335169 0.013191046 -0.047290858 0.044713493 -0.11469244 0.07668388 -0.20548946 0.0328528 0.07639243 -0.027668105 -0.019693352 -0.04047398 0.034874912 0.10769736 -0.04436454 0.14898454 0.0016752174 -0.093115546 -0.088184685 0.04705093 0.051465757 -0.1722309 0.015320207 -0.15105909 -0.16421708 0.08008907 0.049014322 0.0817177 0.041077096 -0.009002215 -0.040643096 0.0935161 -0.01063999 -0.1315735 0.1315461 0.010293177 -0.005252495 -0.09487389 0.10204956 0.069114424 -0.06903455 -0.009959929 -0.21072166 -0.108596265 0.07161329 -0.0256417 -0.017791983 -0.084749386 -0.08901799 0.2182485
12 -0.065839395 -0.026877163 0.027782572 -0.13607666 -0.081593335 -0.013856977 -0.010704485 -0.135815 -0.08875096 0.16797554 -0.0687284 0.13671204 -0.04545184 -0.043462638 0.035939455 -0.07469253 0.055876866 -0.09465451 0.006710104 0.02693334 -0.07469884 0.0888034 -0.033409454 0.0563823 -0.07079052 0.13075136 -0.029433722 0.017253997 -0.065337144 -0.12273903 0.020642184 -0.08281096 0.01849564 -0.11019522 0.121460035 0.040565915 -0.08014477 -0.024020929 -0.12710251 0.0088151945 -0.093671925 -0.13601047 0.13728446 -0.11801261 -0.022067437 0.076017775 -0.008332564 -0.15373832 -0.08539891 -0.07418516 -0.053216375 -0.099976204 -0.10201539 -0.06610375 -0.13353671 0.10968905 0.15419754 0.081670575 0.017781503 0.06472219 -0.08657715 0.05423818 0.15832832 0.07154585 -0.00081306713 0.05154368 0.1319553 -0.14176543 -0.09841484 0.020409571 0.058870103 -0.08983639 -0.13685936 0.056086335 0.14640263 0.0022100015 3.7686008e-05 -0.14211635 0.00047522382 -0.018129589 -0.20725988 -0.12245494 -0.15296718 -0.013589048 -0.18229212 -0.049394935 0.10229624 0.031602822 0.044717237 -0.028060596 0.17521203 -0.16009271 -0.012668854 0.10394847 -0.109667726 0.066624105 -0.090347625 0.0989517 0.016449459 -0.12846927 -0.02619412 -0.071481146 0.032737345 -0.052431658 -0.066189416 -0.050626867 -0.022256086 -0.005060826 -0.121408366 -0.0853038 -0.122656256 0.011555847 -0.026357044 0.07095439 0.10099413 0.026057493 -0.08529655 0.017899863 -0.024935773 -0.03739718 -0.14451616 -0.019327752 0.078522466 -0.093353875 0.1123641 -0.009269532 -0.06807985 -0.0431042
13 0.11630369 0.12394288 -0.0207549 -0.095315896 -0.06261317 0.02130713 -0.12521026 0.083052434 0.076893374 0.092893 -0.097260475 0.061916053 0.04689271 0.076132715 0.009153065 0.03546728 0.061532527 -0.08226369 -0.02989641 0.15915082 0.007931058 -0.023543017 -0.09729547 0.003260648 0.10714841 0.05541242 -0.0903247 -0.06551979 -0.007474776 -0.11537417 -0.018538216 -0.054141663 0.17046754 -0.060491215 0.034196258 -0.11763408 -0.0043526944 0.1709017 0.013070342 0.08093953 -0.15196544 -0.026174715 0.02218587 -0.102112286 0.075118266 0.10603131 0.0447278 -0.075596824 0.15137815 -0.003412551 -0.12427537 -0.0617521 -0.01859532 -0.072140746 -0.064156376 0.06495458 0.008532562 -0.023432214 0.078288965 0.04599977 0.024738705 -0.09604352 0.04403461 -0.032128964 -0.047019914 0.1844553 -0.0040537277 -0.047304947 -0.026564965 -0.16628261 0.1004061 -0.12443066 0.029202139 0.01883683 -0.07643491 -0.013813047 -0.13239905 0.0800749 0.02265555 -0.1150642 -0.08621739 -0.09322139 0.06938671 0.14443329 -0.019734865 -0.07293452 0.06288872 -0.048488934 0.0024021529 -0.006663031 0.06543491 0.01853448 -0.08428922 0.17464167 0.056907356 -0.085669875 -0.044146802 0.118544474 -0.13149531 -0.12421459 0.07154548 -0.1645411 -0.111431986 0.015780827 -0.14365515 0.06682744 -0.041096166 -0.019485457 0.0119280135 0.14951257 0.10196793 -0.018741146 0.111500785 0.054620653 0.117889166 -0.07572086 0.0552551 -0.08859163 -0.10601699 0.10835716 -0.20893875 -0.07935209 0.16533118 -0.043724604 -0.078697465 -0.1396847 0.10283207 -0.0618172
14 0.02534556 -0.028101185 -0.01438624 -0.09770699 -0.0058247787 0.13623548 0.100039005 -0.02957643 -0.027227761 0.018475952 -0.10946951 -0.18205293 0.13599882 -0.040340465 0.12415977 -0.08514949 -0.04698727 0.05138814 0.12590486 0.14271757 0.099833705 0.16289772 -6.0211482e-06 0.029444661 0.100760385 0.09069062 -0.02271541 0.008944129 -0.097825 -0.10350694 0.15786946 0.06922269 0.1324421 0.030420156 -0.04021528 -0.10649926 -0.037200205 0.054813657 0.049663436 0.04203927 0.00015805587 -0.075976446 0.17231964 0.06193833 0.13569203 -0.095775485 -0.050546784 0.024698026 0.053702418 0.05317193 -0.07397566 0.013368327 0.027931446 0.05410153 -0.011786757 -0.14059699 0.028993806 -0.09145681 0.008131444 0.021461619 0.006087545 0.13925067 0.082252204 0.06246942 0.087611005 -0.023591174 0.049948927 0.056005258 -0.033595353 -0.16207306 0.03166791 0.05933119 2.733885e-05 -0.058421586 0.17287949 0.011524138 0.05346769 -0.11235952 0.061594263 -0.16892666 -0.018156124 -0.10157731 0.045670144 0.1428086 -0.14075157 0.0111917695 -0.077681296 0.03544887 -0.010007908 0.14175576 -0.0013655715 0.08044227 -0.09403811 0.02034763 0.037442174 -0.12237907 -0.01546883 0.0034784551 0.052054234 -0.03640746 -0.100086816 -0.024269577 -0.08572748 -0.09954131 0.09272929 -0.03833597 -0.12591141 -0.06754156 -0.19483012 0.018258585 0.09412719 -0.044377245 0.080672964 0.045407046 -0.08611917 -0.14376283 0.106945135 -0.2078714 -0.01763084 -0.046607025 -0.061157934 -0.038844727 0.0673317 -0.13094358 0.1542478 -0.092483215 0.1782177 0.041950338
15 0.13109075 -0.07435187 -0.16411981 0.09583785 0.05997139 -0.008420214 0.039138995 0.059553694 -0.06568696 0.17640163 -0.07596424 0.10601414 -0.058399513 0.059697032 -0.057027943 -0.06825141 0.13920179 0.025163395 0.10890754 0.057823446 0.06815015 0.18349735 0.057867493 -0.12855865 -0.055417985 -0.14021817 -0.081266895 0.019922618 0.032102205 0.02378865 0.117681906 0.096175745 -0.0058991904 -0.13686237 0.017837126 0.10270687 -0.032350764 0.06847549 -0.018309075 0.0370722 0.058927756 -0.04713569 0.12890804 -0.045387447 -0.032566078 -0.01781549 -0.016096136 -0.09728805 0.15342215 0.055776954 -0.10999067 -0.12844312 -0.019186428 -0.10628757 -0.15513425 0.021912294 -0.078545235 -0.020075826 -0.025642442 0.07712772 -0.066454165 0.18713662 0.12580691 0.07803866 0.019906672 -0.021910286 0.036416933 -0.11132403 -0.0038569483 -0.059025012 0.13710253 -0.021305438 0.037666775 -0.1050866 -0.015535492 0.08441487 -0.06206318 0.014875498 0.034190007 -0.058606476 -0.18731697 -0.11748974 0.06978735 0.120493226 0.0007147264 -0.065786995 0.04233211 -0.11578702 0.05822917 0.0061500375 0.13218759 0.06517185 0.09575757 -0.0023738535 0.112372555 -0.09962157 0.028737677 0.14117692 -0.16625664 -0.12032778 0.011858029 -0.05737951 0.035354197 -0.022459932 -0.06733963 0.017932413 0.044645883 0.16977398 -0.10068182 0.19652577 -0.07286308 -0.099066965 -0.022414248 0.085340835 -0.11800375 -0.12982094 0.07480104 -0.050633285 -0.016568149 -0.032629687 -0.15514192 0.084705085 0.017461155 -0.055119738 -0.03617301 -0.12722254 0.014466749 0.014529403
16 0.13683088 -0.078178816 -0.1309361 -0.13652435 -0.024460768 0.08079211 -0.04339549 0.07352573 -0.03076039 0.09232668 -0.013562094 -0.11162523 0.04453391 -0.10530517 -0.0775391 -0.054401882 0.049265202 -0.12840612 0.07960054 0.046131708 -0.06364951 0.076740466 0.011537143 -0.052865215 -0.0880485 -0.109476864 -0.013734015 0.13412318 -0.099811114 -0.1499689 0.12691645 -0.008162218 -0.0063895816 -0.043344863 0.1005891 0.083367005 -0.09868816 0.1489183 -0.12670033 -0.11743543 -0.099811465 -0.11751502 0.05045502 -0.17162275 0.038866505 -0.06174181 -0.062290587 -0.07037429 -0.086657904 -0.14616947 -0.0026502453 -0.13899602 -0.13138896 0.08109241 -0.032884106 -0.011099161 -0.021813521 -0.014510163 -0.04911462 -0.10351938 0.09324568 0.072951175 0.0027782596 -0.1339283 -0.02888498 -0.020510884 -0.025982218 0.02410776 -0.011059429 -0.06598996 0.12765466 0.0947035 -0.047393233 0.024273137 0.04962522 0.021053484 -0.09484825 -0.052177224 0.044328593 -0.014701463 -0.14250472 0.076437786 0.05262523 0.13543238 -0.16184425 0.100929864 0.007881204 -0.086914025 0.077987544 0.0878682 0.10685558 -0.08677301 -0.07391379 0.012302095 -0.03820306 0.012968555 -0.14955896 0.1353265 -0.1618499 -0.09239698 -0.069739826 -0.059054445 -0.11522403 -0.1466199 -0.0013435154 0.013206048 0.023351274 -0.04279442 0.023286996 -0.12120075 0.05655181 -0.09790206 0.020048145 -0.13401473 -0.113368824 -0.11604621 0.100059584 -0.17451914 -0.03308326 0.14232104 -0.17955396 0.017918505 -0.0039368924 -0.01003709 -0.017430732 0.09274388 0.060043957 0.01955583
17 -0.049376853 0.062285736 -0.05062573 0.026893565 -0.055181496 -0.084530264 -0.122893654 -0.01219551 0.07286402 0.11164127 -0.13029817 -0.11663637 0.108712524 -0.13242629 -0.11092086 -0.098861 0.05902638 -0.06958414 -0.10194453 0.027455483 0.14144652 0.09650174 -0.096246965 -0.14452937 0.07338597 -0.010279562 -0.06585404 -0.0073336796 -0.092066534 -0.032950208 0.17857866 -0.015178052 0.12040281 0.011953318 0.14741577 -0.06106217 0.08180661 -0.0011703238 -0.07024133 -0.027941652 -0.06795246 0.09247383 -0.086513326 0.12179105 0.111333564 -0.1143165 0.047873404 -0.17792241 0.1234934 -0.123177014 -0.16954802 -0.096870646 -0.10046942 -0.07016376 0.0006560235 -0.075335205 -0.1073601 -0.058658086 -0.053232796 0.03593507 -0.054566503 0.0045931647 0.014557567 0.009627332 -0.07377565 0.07921852 -0.028323248 -0.06909058 -0.0011582955 -0.024450004 0.15986638 -0.0338581 0.014407824 0.08680585 -0.02521266 -0.07258749 -0.072172694 -0.1264274 0.079981826 -0.13691296 0.012117593 -0.06992055 0.06203482 0.07143909 0.01088677 -0.016158035 -0.11774718 0.011547612 0.10025473 0.12261927 0.18367058 0.04613564 -0.023592247 0.055324167 0.02962278 -0.07902836 -0.19801943 0.13090387 -0.09477053 -0.060654055 -0.008356727 -0.12638547 -0.1587027 0.014361947 -6.488224e-05 -0.055746786 -0.116597846 0.100754455 0.122365534 0.0442167 0.09576578 0.0030521213 -0.016984405 -0.021235505 -0.0836858 -0.052615564 0.104757555 -0.11397611 -0.108215794 0.14536384 -0.111136906 0.08653741 0.048629887 -0.07309546 0.020450862 -0.059814047 0.09323024 -0.004061803
18 0.07857252 0.050818056 -0.016803693 0.030344937 0.09195702 -0.08900242 -0.031834647 -0.027151778 -0.1971901 0.11444225 0.07609131 -0.08732262 0.095719256 -0.13693804 0.0550242 -0.0659485 0.078375466 0.020995805 0.13984409 0.026889559 0.003613138 0.2479596 0.17834358 -0.100149795 0.0682472 0.0907611 0.0066531342 -0.052682143 -0.07199624 -0.055536762 0.032874197 0.1030043 0.022591202 -0.023245955 0.08378591 -0.100014955 -0.12423048 -0.023959393 -0.121387795 -0.12816964 -0.04678952 0.069212444 0.05490449 -0.1348151 0.025469711 0.08902234 -0.11790536 0.06380602 0.012641312 -0.058783043 -0.07743757 0.038976558 -0.0717514 0.009479937 0.030626392 0.11195449 -0.06715287 0.043443326 -0.102142714 0.045588084 -0.17285658 -0.013782497 0.06457518 -0.0070668883 -0.005777899 -0.06675611 0.058092467 -0.044524435 0.04450889 -0.1659361 0.20579682 0.018146584 -0.09282063 0.07645893 0.11400258 0.06856023 -0.03217739 -0.061476745 -0.133742 -0.16137505 -0.03636446 0.04542629 0.017305 -0.055732444 0.023285462 -0.07047508 -0.01737665 0.038954455 0.12016885 0.033241343 0.06805736 -0.0070332545 0.1088589 0.09996528 -0.05151544 -0.023680171 -0.047963616 0.10750575 -0.057608705 -0.16242889 -0.11538094 -0.098579794 0.054270696 0.028986625 0.0760196 0.003315353 -0.13978711 0.15146025 -0.010201059 0.13353072 -0.009972897 -0.063594736 0.068784036 0.14751638 -0.091438055 -0.0904062 -0.07382065 -0.04359426 0.12289174 0.034333337 -0.18574946 0.0048800064 -0.07085141 -0.12260221 0.0592834 0.036803942 -0.09753912 0.060525008
19 0.08425036 0.11621837 -0.042683624 0.090945825 -0.09342799 0.12044675 0.06458435 0.084777035 0.094967954 0.040416002 -0.031500246 0.06468978 0.08375775 -0.068226725 0.08644215 0.0135005275 -0.017853148 0.023493111 0.15601866 0.037574906 -0.011199904 0.019957142 -0.12810771 -0.08425902 0.021453392 0.029340293 -0.09196292 0.15561144 0.05634823 -0.03504359 -0.048784055 -0.06971549 0.033908762 0.008955122 0.10446479 -0.039804596 0.08095632 0.12272306 -0.16481821 0.093092635 -0.03442812 -0.038650643 0.026371596 0.121776484 -0.020196049 0.086793266 0.009656429 0.034857474 0.19586799 0.022728251 -0.012792393 0.09785331 -0.098043665 0.02081871 -0.0010167903 -0.05688939 -0.008573001 -0.08050783 0.10047881 -0.048437968 -0.14422339 0.04850186 0.09047355 0.08807341 0.05027179 0.008339559 0.04025197 0.05516567 -0.032817267 -0.14816834 0.120741814 0.03585487 0.09425264 -0.078594506 0.10836476 0.1277268 0.06629223 0.006063172 -0.074420184 -0.019962518 -0.22599429 0.009258793 0.020545486 0.14831303 -0.20660199 0.10624741 -0.11027343 -0.061160866 0.12000561 -0.110382594 -0.07312032 0.040180314 0.048183464 0.019197427 -0.1418164 -0.11637281 -0.062458903 0.1392875 0.00014093361 -0.081220224 0.0101853395 -0.08115748 -0.18234152 -0.14508846 -0.09887033 -0.049699143 -0.09039059 -0.035872914 -0.13227494 -0.112435885 0.0143617615 -0.007723899 -0.10877072 0.041039214 0.09686441 -0.015807196 0.0021738114 -0.02929131 -0.11298033 0.027936094 -0.15589687 -0.1008138 0.0075851358 -0.0947708 0.012576616 -0.07815027 0.053315066 0.19617811
20 -0.033343688 0.07833983 -0.064795986 0.021456888 -0.009496141 -0.14387287 0.1084497 0.08766639 -0.10081853 0.05419343 -0.0723214 0.034907248 0.06756874 -0.06704924 0.07859065 0.039852727 0.10181714 0.042425137 -0.044118114 0.16535547 -0.100220695 -0.029280229 -0.08558141 0.13388562 0.08692951 -0.043975838 -0.04400471 0.058201242 0.024691813 -0.04608594 0.048256636 0.044442512 0.13542318 -0.1048468 0.09624992 -0.05936275 -0.036277503 0.1412871 -0.16710801 0.08488323 0.058011647 -0.013907944 -0.01801542 -0.052621122 0.03878168 0.07741287 0.023737853 0.0009054175 0.110776804 -0.058964487 -0.16176575 0.046247896 -0.008543899 -0.011819609 -0.016079374 0.09470994 0.186074 0.041771404 0.07140247 0.04365316 -0.061167207 0.07186907 0.06554896 -0.01999244 0.14257957 -0.014649269 -0.060536705 -0.097794265 -0.01844127 -0.12134966 0.0967237 -0.12806483 0.061005462 -0.05314595 0.009529431 -0.007931406 -0.09851791 -0.16542406 -0.1095177 -0.04116032 -0.22534285 0.019913327 -0.11418409 -0.084486134 -0.14093682 0.0067703035 0.013476729 0.10948282 -0.015329274 0.04577669 0.052034326 -0.027867384 -0.14279802 0.16235766 -0.053865597 0.12666853 -0.15743417 -0.104927555 -0.113868326 -0.041363433 -0.09752757 0.06377693 -0.15966439 0.07109821 0.0045396453 0.05584117 -0.097097695 -0.015889317 -0.007713017 0.00068225636 -0.03221837 0.08523271 0.14859173 -0.091511525 0.047331814 -0.12582459 -0.066826455 -0.095903665 0.1487248 -0.09384953 -0.12432606 -0.08745571 0.07149581 0.07887106 0.056109652 -0.10902612 -0.117480375 0.095613234
21 0.020193178 -0.07401366 0.06635287 0.010320703 -0.028945118 0.07128436 -0.023878604 0.07410723 -0.06960215 0.09397788 -0.05504128 -0.116956376 0.0040571806 0.06703445 -0.08861874 0.11745825 0.021583397 -0.04645289 0.05048827 0.0040031457 0.010196043 -0.00063600723 0.12611017 0.062929526 0.012372017 -0.13950123 0.15071887 0.059516862 -0.023893535 -0.013448616 0.20084931 -0.075514175 0.08365573 -0.03569114 0.004592153 0.030211797 0.0877422 0.1293011 -0.083779566 -0.04488218 -0.053691022 0.00064394507 0.009591377 -0.11445507 -0.10470049 0.00895387 0.12363403 -0.028454244 0.18479672 -0.1325238 -0.0792802 -0.0070317313 0.080128714 0.100343086 0.08903729 0.062193986 -0.06806067 -0.073889025 -0.17719923 -0.0601073 -0.016290987 0.059602022 0.04962778 0.07216919 0.19094986 0.107135035 -0.014236806 -0.010529318 -0.04731942 -0.1286139 0.04785803 -0.119157515 0.084415406 -0.0916835 0.06788685 0.04556866 0.110798135 -0.014606556 0.030337416 -0.1416129 -0.08395505 0.033456285 0.019552808 0.1805515 -0.14329104 -0.057632238 0.018886425 -0.033459432 -0.020823257 0.0019034281 -0.035329163 -0.1276277 0.013931447 0.10043715 0.043488495 -0.17413586 -0.022763511 0.02322672 -0.06109944 -0.074035384 -0.057604853 -0.17906095 -0.072817795 -0.021826973 -0.11531856 0.14205848 -0.18312506 0.1238266 0.058652624 -0.027646853 0.18749501 -0.04687195 -0.02724937 0.17727102 0.022965929 0.0073265275 -0.002361875 -0.16080575 -0.15265383 -0.000637601 -0.17439605 -0.020069765 -0.034882557 0.019898005 -0.0007657679 0.06361953 0.066098765 0.10104114
22 0.17901544 0.1015566 -0.07691656 -0.0022969057 0.15930648 0.10080205 -0.09595185 -0.13717937 -0.08921197 -0.006108358 0.052039687 0.024160119 -0.060049802 -0.11471362 -0.07705467 -0.061420616 -0.035109363 -0.15612867 0.07931224 0.028041946 0.13761851 -0.037166346 0.030462107 -0.029069504 0.12830715 0.042863753 -0.04136236 -0.07877895 0.030365808 -0.09186729 0.010169085 -0.11911735 0.09814067 -0.0328709 -0.0053751287 0.14103521 -0.11181804 -0.06765348 -0.11212438 0.08045745 0.013259865 -0.02818781 -0.056743797 -0.11307239 0.038712133 -0.011867434 -0.0944086 0.021400878 -0.0002663738 -0.009175338 -0.2067779 -0.09189458 -0.010951748 0.019082468 0.09703412 -0.05863596 -0.06096172 0.06909295 0.004970192 0.054880388 -0.064283624 0.14943774 0.16610913 -0.09477983 0.0014804902 0.15485589 -0.033996005 -0.1068479 -0.11740811 -0.050285626 0.15882076 0.039567973 0.027848689 0.03875803 -0.093224 0.008351625 0.0014233404 -0.1147132 -0.09512002 -0.15709904 -0.17539272 0.0018959068 0.073999055 -0.052609242 -0.027078528 0.061207306 -0.080280505 0.099880464 -0.020575732 -0.07684015 -0.006875141 -0.13204746 -0.16443229 0.19199812 -0.029674202 0.033313535 -0.09100932 0.13958251 -0.1331184 0.01534693 -0.013638174 -0.050991744 -0.16560532 0.06692087 0.060466483 -0.088125855 -0.16761045 0.033858307 -0.07996082 0.09660954 -0.05570609 -0.07979287 0.03874986 0.034858573 -0.023186382 -0.083076656 -0.08319886 -0.06524244 0.1238505 0.059422553 -0.119471386 0.092034824 0.00073528336 -0.03006167 0.100390576 0.022516556 -0.032356728 0.053412236
23 -0.00845184 0.026034467 0.0022005558 -0.12317568 0.13794921 -0.0923541 -0.051077966 -0.0143597275 0.078724824 0.088441804 -0.13443676 0.016168263 0.11361027 0.010106076 -0.06363345 -0.02368511 0.080049664 -0.04352283 -0.101925366 -0.0047648707 0.12959053 0.0012677426 0.08931219 -0.09787257 -0.12922063 -0.016387448 -0.005330365 0.013466243 0.03681958 0.0693842 0.057406772 0.01574272 0.040569503 0.088494115 0.07667274 0.11683309 -0.04475317 -0.028156066 0.025039295 -0.015869787 -0.14690612 0.0835779 -0.0022803738 -0.043049257 -0.026566697 0.12783545 0.0941302 -0.1641467 -0.01787756 0.09582924 -0.12290986 -0.046589255 -0.07626431 -0.018618815 -0.027957026 -0.0077160653 0.26739943 -0.09095606 -0.105061166 -0.16832134 -0.053585943 0.016100349 0.19350655 -0.083444804 0.0429563 0.07191423 0.0044181827 -0.05792704 0.13185956 -0.046163578 0.05578862 -0.07801774 -0.026311178 -0.031265225 -0.100624315 0.072265685 -0.09310199 -0.065037884 -0.033371553 -0.014081664 -0.075615466 -0.118745886 0.0036048673 0.14629473 0.023295684 -0.046022594 -0.090863615 -0.076861106 -0.040617917 0.11198404 0.052667946 -0.12161821 -0.028466856 0.22490029 -0.080339424 0.055092935 -0.045327332 -0.012805554 -0.15042916 -0.038937658 -0.119573966 0.047604494 -0.021733994 0.021599079 0.019850729 0.06422799 -0.17729169 0.039206404 -0.14770873 0.115443476 -0.02832502 -0.11800846 -0.08017095 0.07170593 -0.07870372 -0.15466763 -0.10979357 -0.060319375 0.001941802 -0.044731323 -0.08480999 0.03061661 0.040376954 -0.061384134 0.15111466 0.08565771 -0.06840571 0.2175388
24 0.03422227 -0.04057084 -0.0576318 0.115650825 0.17966802 0.025293257 -0.054532584 0.008541154 0.07339178 0.11489633 0.020920701 0.08417236 -0.026716726 0.089256026 0.035900302 0.0827569 0.05330016 0.09649409 -0.008695515 0.039174344 0.036381986 0.033662423 -0.023399148 -0.0050008697 -0.10308808 0.1245175 0.06303809 -0.052860394 -0.13987607 0.06894769 0.15360782 0.0787026 0.121201396 -0.11914116 0.0533944 0.07333532 -0.03015625 0.014079046 -0.13944803 -0.090071656 -0.116426095 0.045113094 0.10298645 -0.07306383 -0.048230875 -0.09732005 0.017649187 -0.048998524 -0.01198238 -0.11702098 -0.11750647 -0.1444041 -0.15279871 0.0031320967 0.07769916 0.02960567 0.01892358 0.040792458 -0.034910627 -0.11862849 0.014060452 0.08754282 0.20693427 -0.017130915 0.01467193 0.048391912 0.0037626866 0.08205753 -0.12830585 0.01405125 -0.05541952 -0.08761849 -0.09208818 -0.106740125 -0.10549321 -0.10632004 -0.14352669 0.061960332 -0.034412123 -0.21731073 -0.19810075 -0.10568967 -0.06945197 0.015882874 0.027522512 -0.09548227 0.06192434 -0.03764224 -0.027366314 0.073641 0.043175705 0.12783709 -0.09520417 0.15177815 -0.04530219 -0.063666694 -0.06170701 -0.008976865 0.07145579 -0.2166638 0.025050301 -0.054585434 -0.027832195 0.092163146 -0.07382144 0.08636187 -0.047647215 0.002769057 -0.02934208 0.12673989 0.14281836 -0.108061686 0.056728974 0.17681795 -0.12394134 0.019575173 0.010721342 -0.12070063 -0.07561593 -0.004690651 -0.15513802 -0.0075660013 -0.052619316 -0.100031786 0.008794061 0.060123082 -0.0979759 -0.0010890234
25 0.08839674 -0.11081831 -0.14350672 -0.12073259 0.018409712 9.068615e-05 -0.03222831 -0.03418323 -0.10464543 -0.0029780753 -0.10449175 -0.12328168 0.18534414 0.008483005 -0.013251509 0.08337448 -0.06018533 -0.08329538 -0.04368524 0.09036224 0.037136182 0.064364895 -0.11459577 0.088813074 0.017227555 0.03671736 -0.0771672 0.06471054 0.061869092 -0.10768052 0.10408128 -0.012480174 0.009681717 -0.08503752 0.16300654 0.09415405 -0.08800475 0.09003269 -0.018555863 0.054471273 0.01641323 -0.030563263 0.13218164 0.10584839 -0.0012957702 0.024399681 0.092259265 -0.06568616 -0.06518769 0.13101083 -0.12638645 -0.051228374 0.0120874345 0.045896374 0.11325632 0.0809347 0.09686242 -0.07188365 0.18354738 0.018023293 -0.01814947 0.15527844 0.036575034 0.072474845 0.10699855 0.006347949 -0.025286827 0.059229456 -0.045007907 -0.14175777 0.023886584 0.07088783 -0.037811045 0.013716812 0.0050287223 -0.014922238 -0.068864785 -0.16650073 -0.059267797 -0.23562925 -0.1560076 -0.09067284 -0.052943263 0.0031539157 -0.15440896 -0.06508471 -0.015874678 -0.064197846 -0.09848758 0.09662978 0.13104917 0.075908944 -0.019944027 0.11774856 0.10748286 -0.08840742 0.046323393 -0.029722165 0.03428595 0.07895174 0.039173424 -0.09108755 -0.089872986 -0.01688951 -0.029497936 -0.06016167 -0.16042909 0.06939387 -0.08818665 0.07378161 -0.025155365 -0.083608486 0.11252836 0.039251547 0.049408857 0.051094078 0.072739765 0.07658121 0.16725335 -0.089928955 -0.14869522 -0.10382049 -0.034620717 -0.08046871 0.06575796 0.09948325 0.15831694 0.14401112
26 0.06264825 -0.025163846 0.05281693 -0.08307979 0.0996687 -0.08838442 0.039162945 -0.15511125 -0.045744758 0.06417848 0.034631904 -0.09027692 0.07329343 -0.15639366 -0.023506755 -0.09013309 0.080996476 -0.12988608 0.008801465 0.019449567 0.08259915 0.16738442 -0.025141181 0.09853267 -0.047203135 0.00866195 0.0058382913 -0.026532102 0.07196708 0.024529437 -0.010708974 0.11537623 0.06462674 0.025763303 -0.043184284 -0.019294636 -0.13890785 -0.056913782 0.0675173 -0.1545714 -0.040488772 -0.009067242 0.052463304 0.037678238 0.02892595 0.062766396 0.020120274 0.026768437 0.09476799 -0.025562543 -0.015499072 0.09846786 -0.15206444 0.14753287 0.055586204 0.19232057 0.116443 -0.08654079 -0.0732287 0.047781263 -0.004483876 0.20781541 0.14932644 -0.053858258 0.09302524 -0.06078575 0.09109996 0.058689166 -0.02611408 -0.11646465 0.21011022 -0.0034830007 0.044688266 0.022446591 -0.04662212 -0.029159965 0.1073952 0.009888586 -0.19155578 0.026779281 -0.15411991 0.02726261 -0.102224685 0.13560311 -0.01926379 -0.16727 0.12809914 0.08461319 0.090961464 0.046054382 0.18377975 0.13681997 -0.07135864 0.17124797 0.021297947 -0.10474268 -0.03741436 -0.055601254 -0.1284187 -0.1860222 -0.06644341 -0.025021711 -0.0115281325 0.031426825 -0.11058135 0.057712823 0.0748538 0.095422424 -0.048968926 0.035517413 0.06735645 -0.057084106 0.092774965 0.08989661 -0.052898377 -0.05661719 0.023829326 -0.077462636 0.04883058 0.017253488 -0.0345239 0.07924346 0.013168818 0.009370608 0.0040562465 -0.00952087 0.14482018 0.101291165
27 0.060999215 0.03999836 0.053503744 -0.040303644 0.09709791 -0.08993345 -0.14466421 -0.18056984 -0.11565235 0.21000941 -0.023330165 0.07350277 -0.071587965 -0.19412321 -0.11902337 0.016556619 0.05987114 -0.08603833 0.10423619 -0.042918548 -0.003302819 0.19510432 -0.051324487 -0.00013175259 -0.081646234 0.095398664 -0.10371859 -0.05046814 -0.15599507 0.054249663 -0.044119738 -0.039849717 -0.08663493 -0.17051551 0.02317911 -0.0578313 0.06393767 0.0081507135 -0.07464606 0.04569203 0.09158619 0.08325216 -0.01363535 0.09991701 -0.045200545 0.0577298 0.080423556 -0.0441995 -0.03519945 0.0024027717 -0.02392126 0.03839881 -0.048932545 -0.06262752 -0.09219039 -0.02360696 0.06698398 -0.124971054 -0.080007166 0.07608409 -0.016886182 0.022571033 0.12091847 0.0078484 -0.0956362 0.115816064 0.04994888 -0.19016552 -0.14608778 0.0108236 0.0025809184 -0.13628154 -0.12117989 -0.053047333 0.10208573 0.0616396 0.025643505 -0.12656306 -0.019772187 -0.07138412 -0.19045414 0.008649558 0.097218975 0.10675721 -0.015594485 -0.11967806 -0.09649547 0.089638494 -0.017916448 0.07692143 0.15454182 -0.024333619 -0.11940845 0.19951403 0.06754284 0.063926004 -0.0049653235 0.1071197 -0.058939274 -0.035173543 0.05568857 -0.02338514 -0.007644172 -0.1230965 -0.10327242 -0.1141418 0.010468946 0.087608576 0.06069955 -0.013987297 0.07719855 -0.04138003 0.11037404 0.0970498 -0.085655265 -0.0006067612 0.0018566081 -0.12644109 -0.03583948 0.07039236 -0.17227654 0.07154048 0.0053870697 -0.10971426 0.022657434 0.002972914 -0.027040275 0.033490464
28 0.1059397 0.045835927 0.11412855 0.12020664 0.08203524 0.0070418175 -0.0074911374 0.07889207 0.028667465 -0.056620006 -0.10164708 -0.018091401 0.050647005 -0.07261823 -0.16441733 -0.051203582 0.015336697 -0.16203403 0.04886406 0.1534139 0.010098946 0.012878041 -0.045076586 -0.07908403 0.09918785 -0.059141267 -0.0920252 -0.056137394 0.09286681 0.04756211 0.011468373 -0.11525746 0.054261252 -0.18461452 -0.012026394 -0.114493884 -0.12086341 -0.040131878 -0.082966626 -0.18344441 -0.057294015 -0.06374716 -0.010187738 -0.034667633 -0.15800905 -0.035482623 -0.06725251 -0.012022497 0.054735966 0.020770174 -0.07809281 -0.07490944 -0.0985566 0.006239409 0.0032971285 -0.09341006 0.1927627 -0.04426417 -0.12980537 -0.058156233 0.09186676 0.19895202 0.13323513 -0.05625862 0.013547747 0.13727942 -0.109326884 -0.10968884 0.009804492 0.03411182 0.057935815 -0.030414669 0.031042406 -0.0655696 0.12670176 -0.017675929 -0.001782677 -0.15201107 0.022618342 -0.16898125 0.04761405 -0.08848733 -0.006429924 0.14780095 -0.19535975 -0.10651939 -0.04001638 0.102077655 0.06453066 -0.059842296 0.04632067 -0.0958101 -0.11243644 -0.0011035813 -0.011083016 -0.074216515 0.11679953 -0.005711441 -0.03142107 -0.10135572 -0.050148502 -0.13635099 -0.08722175 0.025091054 -0.004787378 0.05841587 -0.050721787 -0.04435813 0.016066093 -0.0007793779 0.0733253 0.06977997 -0.046256714 0.077645704 0.03397354 -0.12479464 0.1275542 -0.04949922 0.08683912 0.13739699 0.0034193571 -0.0102311075 0.15060103 -0.12395518 -0.08457571 0.0074388413 -0.015916588 0.18331328
29 0.09005556 -0.057719585 -0.014618753 -0.08056511 -0.095798664 0.054616395 0.056430783 -0.024150813 -0.10760882 0.1751188 -0.13071401 -0.1496564 0.028485151 -0.114316195 0.087555274 0.11632936 -0.13340077 -0.07645159 0.1422568 -0.06974439 0.020428343 0.0057283198 -0.026952568 -0.023980677 -0.079120874 0.098739214 -0.07251295 -0.07494168 0.058599778 0.032236762 -0.0024937517 -0.08824472 0.0033881408 -0.12779002 -0.02879 -0.043675367 -0.14091519 0.15793243 -0.04797159 -0.04148192 -0.11748802 -0.041375387 0.04263193 0.10917045 -0.00083147653 -0.042787947 -0.021822415 -0.0033005339 0.023537772 -0.13513467 -0.26101628 0.1719156 0.07709477 -0.027986383 -0.01984376 0.0029483733 0.089903876 0.006137271 0.06972166 0.03441904 -0.17522275 0.081039965 0.17979461 -0.085524596 -0.04669175 -0.028741896 0.014989232 -0.05196523 -0.10969085 -0.12817208 0.014710136 0.052296408 0.012118981 -0.035072558 0.123776615 0.07863518 -0.06324908 -0.001325263 -0.0065574097 -0.07428931 0.0061082914 0.10473951 0.06668408 0.0897824 -0.0021648083 0.020509966 -0.074422136 0.14221285 -0.019467987 -0.06349703 -0.015442252 0.15992035 0.0187345 0.0891889 0.08522816 0.053257752 -0.15340708 -0.12716584 -0.0006415991 -0.17795345 -0.06030292 -0.13158736 0.06009015 0.04061101 0.0074657383 -0.04794133 -0.025259592 0.0022445496 -0.0071408697 0.06787384 -0.04850227 -0.056758735 0.14111225 0.0415895 -0.043095842 0.05358951 0.14162871 -0.11944258 -0.119451806 0.16543709 -0.08312186 -0.050163656 -0.06862039 -0.13258348 -0.08379881 -0.117203765 0.058980454 0.08987782
30 0.14141198 -0.034807697 0.092525765 -0.07537189 0.062305246 0.113169506 -0.11270708 -0.13279216 0.015038848 0.016445417 -0.100354075 0.04866194 0.05840591 0.08264717 -0.08231224 -0.001673217 -0.07492812 0.0042626215 -0.045055673 0.044858567 0.1623951 0.06477135 -0.03991483 0.07124333 0.067875035 -0.110468306 0.021656008 -0.043214776 0.06549824 -0.11584697 0.04371471 0.082332075 0.1361026 -0.031349294 0.12662703 0.070803925 -0.0067122085 0.119242474 -0.0762932 0.044445727 -0.0997035 -0.14448169 0.0049723014 0.0042693643 0.11626093 0.06702687 0.018390954 -0.08979107 0.037529137 0.05668866 -0.19736359 0.08585058 0.08217791 -0.005798076 -0.061067108 -0.08781291 -0.00039656746 -0.08911567 0.06471259 -0.027107606 -0.043056726 -0.021395417 0.21991912 0.11689248 0.1180413 -0.070661254 0.01013112 0.0032959045 -0.0027355223 -0.023317395 0.0952058 0.060479145 0.019465359 0.12445333 0.1271094 0.119810596 -0.056373186 -0.16610093 -0.035085723 0.0025454292 -0.0043907873 -0.115774415 -0.020644566 0.035066467 -0.13356608 0.06646093 -0.088905446 -0.05692792 0.06654605 -0.031688042 -0.021888329 -0.009599005 0.007145329 0.11511497 -0.11506318 0.049771324 0.019791668 0.021357512 -0.11669759 -0.025232598 0.066953376 -0.14980473 -0.09763602 -0.08377031 -0.12036319 0.0075987903 -0.13775846 0.0040766727 -0.1449712 -0.043794554 0.12340847 0.096858956 -0.12109244 -0.022215713 -0.050421413 -0.036310844 0.07169881 -0.1626088 0.16117951 0.11244508 -0.13681 0.14574641 0.090363614 0.088402405 0.11386645 -0.033280306 -0.043643314 0.18397722
31 0.081133425 -0.08236891 0.085742906 0.04037154 -0.017296057 0.105991386 -0.06331565 -0.023360537 -0.05152821 0.1105777 0.06334947 -0.011590401 0.0049427566 -0.13570029 -0.12225403 0.049276363 -0.016593475 0.056796584 -0.0762786 0.16760539 0.09374499 0.20289277 0.1355168 0.120420456 0.07989955 0.09048215 -0.028848099 0.13982989 6.837604e-05 -0.14836401 0.13448712 0.04478744 0.026367608 -0.10614737 -0.034807708 -0.021699104 -0.11517898 -0.040892217 0.09674428 -0.0064606783 -0.08161631 -0.11576639 -0.07630204 -0.048557125 -0.017523006 -0.03535717 -0.11138878 0.018626366 0.07615178 -0.023274599 -0.15918258 -0.031004775 -0.07298045 0.07506656 -0.09016128 -0.068052195 0.0047647282 -0.089938916 0.13079666 -0.049184933 0.052328587 -0.039345693 0.10754517 -0.109021336 0.05786788 0.018026479 -0.005237165 -0.06321955 0.025527326 -0.17437541 0.01305659 -0.10305943 -0.11135458 0.12663701 -0.0052925018 0.09454648 -0.10472417 -0.06489439 0.072965704 0.054772925 0.026641713 0.02284915 -0.023588033 0.080950506 -0.15789706 -0.020921886 -0.0267213 0.053672906 0.061338775 0.039835002 -0.010249182 -0.08107781 0.046164207 0.14060473 -0.113201715 -0.20338553 -0.079347335 -0.09385671 0.06588255 0.10830126 0.055375945 -0.17662683 -0.06395568 0.014642487 0.03780736 0.014560877 -0.15603207 -0.04071824 -0.14906248 0.073332466 -0.11203237 -0.13058287 -0.047863245 0.06786982 -0.066266485 0.06382018 0.073663935 -0.13140592 -0.10626805 0.1090415 -0.162674 0.0042311624 0.049651336 -0.0031417212 0.13487756 0.03446254 0.12957764 -0.018150108
32 -0.017541282 -0.0488262 0.03639057 -0.09732527 -0.0687631 -0.07130161 0.099872306 -0.053092584 -0.0689237 0.04863473 -0.07352341 -0.15197031 -0.020910397 -0.12798268 0.043156933 -0.0018257804 -0.07553203 0.085699104 0.12015082 -0.0065044654 0.18928881 -0.05280205 0.028070573 0.1351334 0.060604725 -0.04681826 0.09130508 0.05585436 -0.1388448 -0.10869019 0.021905467 0.083877265 -0.002570991 -0.092024006 0.09617898 -0.102488376 -0.039614692 -0.004542657 -0.017456457 -0.112150766 0.057536397 0.0273863 0.0050622183 0.06534916 0.028174156 -0.097701944 0.01601259 -0.086348444 0.155015 -0.14118548 -0.13928904 0.08619673 -0.043210205 -0.033098698 0.06583764 0.15047434 0.12387414 0.06869673 -0.006600199 -0.121231355 -0.101629816 0.12659805 -0.0267006 0.12771797 0.025245873 0.010975567 0.031344984 -0.13250165 0.046628993 -0.13040565 0.018800274 0.0048350533 -0.08229373 0.068926305 0.05096922 -0.022050854 0.008146772 -0.19768001 -0.15764672 -0.043352686 -0.062464636 -0.08444897 -0.07050277 -0.12542234 0.043380335 0.014141735 0.120094284 -0.07347742 -0.0002046047 0.018817777 0.1567749 0.09905047 0.066552065 0.07070047 -0.16753522 -0.15522142 -0.15036686 0.05058745 -0.10715269 -0.15891132 -0.062426478 -0.027288806 0.018181475 -0.15856716 0.056310657 0.10749846 -0.031009484 0.06976156 -0.03896452 0.14288627 0.10083911 0.110382505 -0.011300139 0.086075015 -0.062444936 -0.13614608 0.050751492 -0.03250844 -0.032367826 0.07435941 -0.011754037 -0.01863493 0.004481803 0.077521905 0.07227128 -0.058930736 -0.006964213 0.19708762
33 0.07575038 -0.124757946 0.10360504 0.12596944 -0.0018877464 0.047551975 -0.09089699 -0.06843093 0.020125581 0.051876873 0.06379394 0.055285916 -0.043570396 -0.1021674 0.021946467 -0.05672769 -0.06428483 0.08544483 0.10307521 0.09435771 0.02354324 0.17655517 -0.113566734 0.07606957 0.05400626 0.07810088 0.025223779 0.09479666 0.013780645 0.035522748 0.19934352 -0.08796249 -0.09097894 0.058620825 -0.082718164 -0.108540796 -0.04286384 -0.045879465 0.058715083 -0.11706243 -0.08903485 -0.09798498 0.08378475 0.07239303 -0.099804126 -0.022394694 0.121468805 -0.09738932 0.11681724 -0.084004514 -0.038344298 0.082653865 -0.06282657 0.05956525 -0.08208082 0.05017732 0.07634973 -0.1479171 0.09105591 -0.12163109 -0.001992426 -0.020469466 0.024728367 -0.12071944 -0.046148587 -0.016780501 0.04606522 0.032516066 0.023416325 -0.13987762 0.114083804 0.024142293 -0.008518715 -0.11177478 0.030088581 0.13759026 -0.02355792 -0.03995607 -0.070061825 -0.14467134 0.009812474 -0.10786249 0.05331173 0.1540257 -0.1930376 -0.058687657 -0.078057535 0.07366416 -0.0027607367 -0.10077526 0.031915724 -0.08291715 -0.18709108 0.06884322 -0.061840195 -0.07181897 -0.103700966 -0.08914754 0.05463529 -0.07071527 -0.12381337 -0.043030266 -0.110935606 -0.11057106 -0.13937452 -0.006115441 -0.11513714 -0.013472289 -0.117427245 0.0023146553 -0.031111993 0.08125457 -0.054380078 0.07764396 -0.12512231 0.02688315 0.1482005 0.00460322 -0.029988509 0.10728359 -0.13538213 -0.100151956 -0.07610841 0.09671385 0.05203174 -0.062263228 0.12024955 0.17215686
34 0.1400296 -0.08329365 0.085275486 0.11656245 -0.064875856 -0.0026302813 -0.08951666 -0.058713198 -0.0012067086 0.07642371 0.009224725 -0.068487585 0.096991 0.04485903 0.024119437 0.047745835 0.09517125 0.12445605 -0.036525443 0.12831996 -0.07542962 0.10503319 0.047869857 -0.05262549 0.08022477 0.07621138 0.08740795 0.10001538 -0.021721901 0.013508659 -0.09487648 0.050659962 -0.055833902 -0.08699065 -0.05138252 0.061552916 0.024447488 0.021316305 0.022766855 -0.020753844 -0.15110724 -0.11002127 -0.09210067 -0.08772903 0.13233298 0.0021776494 -0.08361925 -0.17278594 0.16226216 -0.047361095 -0.2152269 0.04096304 -0.10628868 0.10901942 0.08620766 -0.028628694 0.13543278 0.049000166 -0.12179684 -0.056069173 -0.015002549 0.06478351 0.12421422 -0.0104082 0.096981 0.023815487 -0.07772241 0.08414731 0.028472178 -0.03462064 0.13519555 0.02554093 0.029939868 0.17090012 -0.050058104 0.038652238 -0.13483064 -0.0954582 0.0019707223 -0.15749168 -0.062053166 -0.0013318775 0.06293334 0.15558968 -0.1446541 0.06254142 -0.08548449 0.13793823 -0.038221844 -0.029658223 -0.017889787 -0.0017499393 0.06434431 0.11702918 0.017025098 -0.114041075 -0.0996687 -0.0009784234 0.011655703 -0.04987353 -0.06910832 -0.17880893 -0.11116522 0.09091054 0.096874714 0.13102967 0.1102166 0.016762592 0.0045621386 -0.13957228 0.06309526 -0.10929468 0.111406796 -0.07474668 -0.027254973 -0.012615998 -0.10885739 -0.037184283 -0.043957002 0.04414245 -0.075811096 0.02594433 -0.065200835 -0.11848915 0.15576643 0.07563787 -0.04058948 0.17487033
35 -0.043543763 -0.06794059 -0.08233953 0.06851276 -0.0776739 -0.022960559 0.053509925 0.031708308 0.05683677 0.14945745 0.05450296 -0.15676656 0.07491623 -0.12454352 0.030475218 0.101762995 0.061944805 0.026545782 -0.041906185 0.10189409 -0.028197814 -0.02922517 -0.004650145 -0.03000865 -0.072093405 -0.029932518 -0.057472724 -0.060375143 0.09895313 -0.05601547 -0.03862338 -0.028339466 0.0876476 -0.020327047 0.11594094 -0.041481588 -0.09755274 0.0704315 -0.14955997 -0.12616871 -0.06887293 0.08678175 0.051396415 -0.14433202 0.13019891 -0.0076938826 0.03708138 -0.13435146 -0.05364161 0.059046406 -0.11811996 0.02848578 -0.11887239 -0.10050692 -0.07686027 0.025533337 0.06789639 -0.003635931 -0.14841138 0.030206565 -0.13520272 0.11478482 0.032217238 -0.1385615 0.1468001 0.12819277 -0.0010017462 -0.09526818 0.037378658 -0.07381204 -0.027721176 0.090260684 -0.099921174 0.119998276 -0.11966212 0.12111588 -0.14703403 -0.15316369 -0.0017936298 -0.10562973 -0.16657247 0.122294486 -0.0624142 0.15267542 -0.18625192 -0.08124193 0.044650033 0.09963341 -0.019510634 -0.0014789293 -0.046283443 -0.124638975 -0.03043791 -0.07510357 -0.0012851459 -0.1368698 -0.10267858 0.102695465 -0.07011284 -0.0819568 -0.04179959 -0.16790207 -0.043964587 -0.096096575 0.044347566 -0.050149143 -0.052233916 0.008560532 0.09676578 -0.06712166 -0.032546367 -0.15604538 -0.10612692 0.0026106166 -0.030495776 0.029667104 0.091737404 0.01775313 0.071356654 0.12095105 -0.117846474 0.036144443 0.026023772 0.068643674 -0.004841228 0.06468456 -0.10344243 0.15113023
36 0.0330667 0.1039891 -0.095642455 0.024226235 0.0415122 -0.07133803 0.079348855 -0.13717498 -0.1530909 0.060098562 -0.13528161 -0.07654093 0.0039502317 -0.0011201658 0.013621924 -0.054427296 -0.060071908 0.0912633 0.025532182 0.13163064 0.021374691 0.18823308 -0.0800261 -0.07900336 -0.044109683 0.0578935 -0.13064289 -0.009379272 0.09631249 -0.09008123 0.0153863635 0.074301474 -0.067254625 -0.024928613 0.10933676 -0.012825739 -0.09577598 0.016273798 -0.05332118 0.06165251 0.093308486 -0.08310242 -0.07648818 -0.14725319 0.075521216 0.010160598 -0.0039012975 -0.022342183 -0.0379663 -0.14751002 -0.19551174 0.0029766674 -0.13816592 -0.003991432 -0.0113638565 0.10180435 0.08934036 -0.11304086 0.01788086 -0.046999168 -0.08352331 0.16524413 0.1269323 -0.061972056 -0.06658078 -0.08217086 -0.024320327 -0.0073563815 0.020876458 -0.23133957 0.11274716 -0.10562261 0.10224518 -0.0883036 0.11364505 0.08539665 -0.06524451 0.12280517 -0.026248004 -0.05196318 -0.11883709 0.00631543 0.14412963 0.12223509 -0.07726318 -0.016751148 -0.08630424 -0.07162213 0.05823534 -0.028117443 0.019937387 -0.12816869 -0.2166958 -0.00478109 0.061754197 -0.124352574 0.0045062066 -0.11655469 0.013277976 0.01027178 -0.06316007 -0.005681876 -0.123664685 -0.024712903 0.045811445 -0.008919498 -0.027682832 0.13005783 -0.1624816 -0.043939013 -0.018043315 -0.056350876 0.045357723 0.12051929 -0.08750267 -0.016802475 0.09987598 -0.04749997 -0.023773897 0.09866014 -0.10595256 0.06413558 0.08508944 -0.066723675 0.084292114 -0.054860026 -0.052599944 0.19329356
37 0.1340352 0.070368186 0.097511716 0.118719295 -0.0796854 -0.053477332 0.09400544 0.04969555 -0.023993459 0.1876441 0.05764282 -0.016547669 -0.117916 -0.054908164 -0.042763714 -0.10593162 -0.038656726 0.017914588 0.048262987 0.18573439 0.1414228 0.21502267 -0.07271547 -0.10627814 0.021312574 -0.13134527 -0.041982114 0.043731462 0.033644132 -0.11202132 0.14102167 -0.03620039 0.0041426863 -0.11712139 -0.086517885 -0.059854582 0.023933386 0.020621505 -0.016410746 -0.026291646 0.05321498 -0.08353728 0.037021745 0.022101415 0.12174249 -0.05422589 -0.00955427 -0.14987291 0.11620966 -0.060857046 -0.01571952 -0.039902233 0.008217663 -0.11569669 0.088210896 0.12203307 0.13684338 0.015887963 -0.068264335 -0.030428978 -0.18244654 -0.061695073 0.115851074 -0.07579255 -0.07874433 -0.0055808006 0.1391951 0.091223404 0.024956523 -0.061747912 -0.012801773 0.07450102 0.052249644 0.034465164 0.1100881 -0.021243861 0.009796642 -0.019335603 0.0005004764 -0.14256245 -0.21803539 0.08527324 0.072643615 0.045526955 0.054581176 0.0074941693 0.023306843 0.09419519 0.14901477 -0.01627661 -0.053562015 -0.086427756 -0.07295962 0.11563757 0.06177494 -0.18858999 -0.004134738 0.10189444 0.037141237 -0.034784917 -0.04963027 -0.10313643 -0.1502287 -0.04114153 0.107148215 -0.04633704 -0.09351245 0.040661357 -0.031188078 -0.05473032 -0.07997528 0.00023786999 -0.07666593 0.14602755 -0.060234465 0.08046505 -0.08805194 0.020689031 -0.07666581 -0.071546964 -0.06626614 -0.1073519 -0.015919022 -0.082186766 0.07955118 -0.09514299 0.13821292 0.16018945
38 -0.017701676 -0.09534564 -0.08229975 0.065023065 -0.07458899 0.07851018 -0.09413888 -0.007954959 -0.08756442 0.16492327 -0.056897998 -0.0071071596 0.07529294 -0.021799864 -0.06787431 0.06325749 -0.013950006 -0.09958456 0.120649636 0.20957829 0.13529813 0.06441119 -0.044562522 -0.09405782 0.04744373 0.06893536 0.16868934 -0.119336784 0.036224578 0.04003509 0.041637152 0.08299573 0.15157042 -0.09943131 0.07821814 0.052680243 0.058899965 -0.06010748 -0.028036203 0.036018834 0.012993106 0.007916544 0.097595766 0.030860832 -0.013833425 0.105022885 -0.019417655 0.04396775 0.11849639 -0.101078935 -0.07923028 -0.016319461 0.044503417 -0.065013446 0.09800754 -0.058416 0.15806958 -0.03732635 -0.14510582 -0.045082636 0.055784136 0.1825586 -0.035897017 -0.1239465 -0.0060346746 -0.00910452 0.12430442 -0.1201359 -0.15641342 -0.06319423 0.067339174 0.05122558 0.11384013 -0.01851807 0.085585244 0.0057496307 -0.040905554 0.039012216 -0.081222504 -0.1650037 -0.14604068 -0.089885935 0.13827142 0.043786887 -0.0046657464 0.102748446 -0.03254202 0.005423079 0.1499808 -0.0870584 0.06373114 -0.13306582 -0.06387194 0.05534688 0.025192661 -0.15730007 -0.11924072 0.01637754 0.012972199 -0.1704116 -0.011070448 -0.038905572 0.01878695 -0.12605721 0.1251432 0.04833713 -0.0019388073 -0.0068988856 0.048761815 -0.07115109 0.12427293 -0.16714148 0.013406469 0.1680969 0.02525413 -0.044662487 0.026956981 -0.15343352 -0.032695998 0.028450757 0.026993928 -0.005412501 0.005151397 -0.09251138 -0.109052405 -0.009730001 -0.039729286 0.18663564
39 -0.05716212 0.12970564 -0.08470393 -0.0012106395 -0.044346258 -0.05586318 -0.017371891 -0.09431598 -0.08559892 -0.015054282 -0.17707755 0.13760963 -0.005470249 -0.015688866 0.005099249 -0.014836706 -0.105309136 0.055859372 -0.01942598 0.14537056 0.021572435 0.1834588 -0.050307084 0.06880533 -0.044224396 0.03886467 -0.043051507 0.057445318 0.022162264 -0.08963867 0.067707956 0.025920559 -0.04204525 -0.21342316 0.12512642 0.12548184 -0.099075966 -0.054626193 -0.15254572 -0.0873804 -0.11542756 -0.035959475 -0.049920946 0.022882376 0.056783833 -0.09190399 -0.09655512 -0.1444434 -0.003981226 0.0019777848 -0.02008427 0.039354287 0.05201814 0.06477815 -0.0101021975 0.06751745 -0.071940646 0.062445857 0.012067319 0.06726225 0.031483676 0.18867052 -0.0065940516 -0.057159286 0.0045197373 0.0007286816 -0.060581453 0.08628632 -0.06471185 -0.02753504 0.022175584 -0.06451758 -0.12360783 0.13196565 0.055108372 0.036834247 0.024050333 -0.15479702 -0.06337517 -0.06367086 -0.16318353 0.040624104 -0.01349627 -0.07130137 -0.19485565 -0.036671773 -0.0037979784 -0.07389588 -0.06840792 0.11912626 0.0238396 0.03992393 -0.16677672 0.0036102212 -0.050285388 -0.08197742 -0.16309708 0.030209096 -0.10096073 -0.21483937 0.11720021 -0.08498923 -0.053766172 0.025422709 -0.15863271 -0.06495282 0.050562978 -0.07465676 -0.05904078 -0.07130575 0.013171734 0.029546835 0.024078213 0.06413344 -0.12392078 0.037508063 0.19221804 -0.22189675 0.08027786 -0.020422265 -0.07302225 -0.083264545 0.053768866 -0.059477217 0.03142221 -0.066683166 -0.104614526 0.13976349
40 0.10202803 -0.042205293 0.09317936 0.055109352 0.044901878 0.07119644 0.04746899 -0.07146604 0.09066795 0.042887386 0.010264824 -0.1008143 0.15661389 0.020060103 0.027149962 -0.066993415 0.053173687 -0.13422564 0.0015065231 0.1371293 0.00081104995 0.15984632 -0.16294013 -0.014360052 -0.091814496 0.0814436 -0.094957046 0.07421988 -0.095778584 -0.063343495 0.073480904 -0.0486245 0.10051001 -0.1251098 -0.077004634 0.04418058 0.021762008 0.0055931243 0.11830451 -0.089412615 -0.00077591476 -0.023300774 -0.010385722 -0.015559291 0.02725921 -0.13428843 0.008115723 -0.05028835 0.010769104 0.024848016 0.07782866 -0.015273189 -0.07800092 0.07269062 -0.05601076 0.07745927 0.11433548 -0.0474964 -0.10411126 -0.16458379 -0.022235641 0.09656829 0.13568194 -0.13943255 0.03264097 -0.008967958 0.02152775 -0.13260713 -0.07236542 -0.1294801 0.17716104 0.13158338 -0.05680803 -0.016628794 -0.08897026 0.12622592 -0.124842085 -0.08093324 -0.07378766 -0.041202303 -0.20472683 -0.09607913 -0.10865808 -0.07635226 -0.11221816 -0.1505779 0.09321881 -0.11752996 -0.03616114 0.08503011 -0.0854773 -0.047164533 -0.13906965 0.11459817 0.03410137 -0.05796696 -0.0578644 0.0997123 -0.14391965 -0.06757338 -0.036208373 -0.12507014 -0.100342594 0.10878737 0.07981394 0.14747116 -0.04498781 -0.12336317 -0.015258349 0.012813246 0.08641394 -0.13445187 0.023823058 0.065911524 0.025625847 0.010165619 0.054638166 -0.15333658 0.10861614 0.08523058 -0.053003184 -0.041195177 -0.06571196 -0.043393932 0.05708365 0.051282607 0.113357 -0.06530161
41 0.05053407 -0.043941654 0.024805792 -0.065077946 0.021774817 0.12388666 0.005257546 -0.032925367 0.042460263 -0.03939672 -0.17140037 0.0020882161 0.16717437 -0.08155427 -0.013303931 -0.08402089 -0.044362783 0.05317148 -0.072758056 -0.015535742 -0.07132536 0.1750466 -0.008209621 0.013981566 0.008902372 -0.028074225 0.08105262 -0.04994386 -0.09131967 -0.07391185 0.0471721 -0.021784531 -0.06563143 0.055412326 0.06488583 0.11505265 0.019691156 0.10493056 0.055863634 0.07769541 -0.115174085 -0.017234901 -0.01632051 0.10213339 -0.07892068 0.0106485095 -0.09324382 -0.18661034 -0.0053802086 0.010808408 -0.16703774 -0.12198557 -0.07790098 -0.0010682488 0.02831116 -0.0473739 0.19346958 -0.00961525 -0.040670898 -0.19181117 0.009143917 -0.0420829 0.20268416 -0.0973818 0.057991493 0.09595552 -0.038785595 0.052760974 -0.047779415 -0.23338212 -0.011195582 -0.07281834 0.13264279 -0.017846562 0.06033173 0.015881792 0.028846532 0.027576825 -0.09560844 -0.1641478 -0.13341944 -0.059505124 0.09371819 -0.067300156 -0.03745158 -0.062256876 -0.1154122 -0.06668225 0.11902563 -0.02682267 0.17560337 -0.11888278 -0.027951365 0.03579835 0.044988774 -0.07915056 -0.06850622 -0.123765156 -0.19100961 -0.029922158 0.07197227 0.057307865 -0.099916436 -0.0062937266 -0.04802102 0.120542645 -0.026410382 0.1296714 -0.035577085 -0.03129465 -0.023247482 -0.11236047 -0.032925345 0.07096893 -0.0079417825 0.024867592 0.14058591 -0.0283754 -0.018135438 -0.10402361 -0.16013998 -0.10028493 -0.05951759 -0.056265745 0.07183227 0.0029934384 -0.07723774 0.20577598
42 -0.013129959 -0.12590973 0.016929254 0.13035852 -0.054740824 0.07336601 -0.07198902 -0.14813332 -0.08646791 0.09404964 0.06335327 -0.0001315067 -0.029422294 -0.08683999 -0.09632727 0.064177796 0.0628088 -0.014766898 0.17863172 0.11792209 -0.015931142 -0.012404011 0.05211731 -0.1205854 -0.006290638 -0.106337875 0.0014580865 0.07488901 -0.0038451757 0.052999962 -0.051464118 0.012671785 -0.051284228 0.006244475 -0.09459364 0.09307448 0.056027286 0.1454833 -0.0005839977 0.0012015557 0.056319058 0.110940374 0.14065304 0.07312048 0.044848863 0.06518766 -0.11885502 -0.1085895 0.10374408 0.10459806 -0.08674394 -0.021763988 -0.062536724 0.026753947 0.11074577 0.09767559 0.09864885 0.13314366 -0.09519824 0.0057299607 -0.10077129 -0.055515602 0.1381731 0.007477796 0.025813099 0.1417082 0.06421162 0.06383931 -0.11212038 -0.17060754 -0.032106396 -0.030951139 0.07281805 0.13127775 0.04151457 -0.086700216 -0.1305557 -0.119305484 0.034796625 0.022784198 -0.0016148217 0.052339297 0.032174446 -0.006901817 -0.07218091 -0.1391489 0.09484153 -0.098790824 0.08658895 0.06628761 0.123159595 -0.078021504 -0.10902186 0.13241206 0.0057417112 0.0576674 0.00077011064 0.047573797 0.06113723 -0.2147373 0.050524563 -0.085158184 -0.15077014 0.030473249 -0.067119986 0.05346315 -0.069472626 -0.057058237 -0.045005374 0.05995315 0.12744077 -0.07265812 0.04353781 0.17958583 0.004229131 0.06344052 -0.1068586 -0.1754261 0.109481856 -0.0038394562 -0.19972251 -0.1306511 -0.009594123 -0.10236082 0.0654648 0.020386955 -0.11402468 -0.010725634
43 -0.07789453 0.1740621 -0.15293093 0.10150424 0.17030746 0.012166637 -0.009628685 -0.14284576 0.07621169 0.21616037 -0.01717743 0.011252192 0.06794229 -0.04582726 -0.056018323 0.07232405 0.07107154 -0.030420013 -0.11589735 -0.004233722 0.016582184 0.062503025 0.06396493 -0.041711617 -0.00064753304 -0.0010551746 -0.06505183 -0.1179034 -0.0018642581 -0.05784258 -0.085802674 -0.08315827 0.06417063 -0.028371623 -0.104556024 -0.050972942 0.06344458 0.022340814 0.068203464 0.051311582 -0.15197957 0.115410514 0.107050255 -0.046085883 -0.08125046 0.02817384 -0.019598857 0.046453897 0.065011956 0.08425718 -0.13775115 0.03337684 -0.122371346 -0.07980898 -0.06030134 -0.032672092 0.009609938 -0.06598569 0.013309672 0.10393426 -0.08535994 0.14857413 0.034443714 -0.13055769 0.004811913 0.15373112 0.017498149 -0.025984537 -0.16249342 -0.24685542 -0.07833945 -0.073136285 -0.1165738 0.07826435 0.13872755 -0.071650885 0.02676331 -0.13429378 -0.11971702 -0.18382215 0.0049419813 0.06893555 -0.026002165 0.03375842 -0.12830386 0.02200977 -0.044984683 -0.10503653 0.18769883 -0.023718769 -0.039375693 -0.053678326 0.097603545 0.06985849 -0.14951323 0.010615723 -0.17975327 0.09004041 -0.040601786 -0.13077284 0.056422915 -0.00814562 -0.014275475 0.013123252 0.03248629 -0.080779366 1.8009892e-05 0.04909799 0.0033302195 -0.05243303 0.048408173 -0.17084628 -0.046601173 0.069959514 0.030661117 0.040077016 0.063592024 -0.1588795 0.012573389 -0.07518158 -0.1157697 -0.027127333 0.05534673 0.067044385 -0.046226185 0.042406302 -0.103287034 0.012506522
44 0.17527771 0.110298835 0.040924236 0.00479803 0.020647272 0.05949843 -0.051224537 -0.062686846 0.13264439 0.13878104 -0.07167149 0.0033248872 -0.10231172 -0.049924463 -0.13712947 -0.10000353 0.09768146 -0.091665335 0.08864517 0.19206235 0.14568065 -0.031995863 0.103015795 0.117806025 0.025986293 -0.035018947 -0.026119618 -0.074276686 -0.12940778 -0.13677187 -0.013091092 -0.059099212 0.09334541 -0.12293533 0.05274896 -0.0051186695 -0.001007676 0.056996632 -0.06129332 -0.12515257 -0.06892629 -0.07594989 0.11522775 -0.09589068 0.05593865 -0.07388295 0.020112492 0.019719811 -0.045575973 -0.052174658 0.103419624 0.10358202 0.010252582 -0.024782216 -0.06384008 0.13022187 0.07441414 0.028296972 -0.112353325 0.029541057 0.050736323 0.120563276 0.05171716 0.06943231 -0.050149422 0.078591146 -0.05356941 -0.037704576 0.052647434 -0.010170281 0.17226827 0.05768746 0.07656406 0.044119596 0.11056994 0.11644153 0.03807533 -0.09219387 0.07244152 -0.15624276 -0.17926672 0.070689104 0.0032030654 -0.039795935 -0.2049897 0.088672236 0.0923742 0.12988533 -0.0077462546 0.08640149 0.14717108 -0.031982247 -0.11280094 0.089484185 0.04520148 -0.112106875 -0.1630273 0.12187767 0.016431423 0.06882135 0.087828085 0.021010844 -0.06533881 -0.048699144 0.033105157 -0.008335374 -0.19705826 0.121330075 0.02106206 0.012826362 0.16034481 -0.03485154 0.053213373 0.020946067 0.052084405 -0.06951079 -0.018188411 -0.096518785 -0.067603506 -0.07357742 -0.01165299 0.09169333 0.1045633 -0.0018036757 0.07050107 -0.09605866 0.046012625 0.095038764
45 0.16567639 -0.017199634 -0.001600675 -0.07463339 -0.05753437 0.08934573 -0.003764486 0.008677403 -0.04944449 0.13975634 -0.016193762 -0.029032668 -0.0052272454 -0.10027702 -0.11987411 -0.1117941 -0.046847656 0.10051479 0.06798156 0.039628934 0.13295741 0.058169957 -0.083898 0.091777936 0.1053823 -0.097589806 -0.009655837 0.037682615 0.02786675 -0.11549053 0.04534622 0.12781529 -0.0013636948 -0.10251874 0.047582705 -0.12669156 0.069072455 -0.08930126 -0.04285817 -0.15607959 -0.14868389 -0.068274945 0.022224806 -0.12378773 0.14840782 0.07771455 -0.062438298 -0.1071705 0.038805496 -0.08134592 -0.03712152 -0.1628931 -0.16060682 0.023372307 -0.15224054 0.11615017 -0.0008341912 -0.106290646 -0.051499657 -0.19951734 0.06214352 -0.034965437 0.11851872 -0.12287569 0.10797661 -0.059482247 0.012699253 -0.0683112 0.12173684 -0.07696273 0.14597863 0.035487358 0.05617271 0.022752177 0.07128879 0.002590711 -0.09803537 -0.044658545 0.0048216856 -0.1359236 -0.024933284 0.078815244 -0.06773233 0.02796966 0.001105775 0.043392006 -0.16224793 -0.018092364 0.0973394 0.015454356 0.022647208 -0.16981682 -0.13596185 0.08313702 -0.06786844 -0.08660953 -0.04345248 0.04824273 -0.016469557 -0.13021672 -0.092373155 -0.19417775 0.024416786 -0.1198073 -0.096031696 -0.037991557 0.011341139 0.10635113 -0.06860874 0.10531105 0.16310947 -0.055362143 0.13517398 0.064725965 0.044004377 0.13937728 0.079593785 0.011167113 0.010128655 0.026609408 0.010934169 0.00704117 -0.019217804 -0.08572461 -0.010640846 -0.110388376 0.03485289 0.050597645
46 -0.054621924 0.038056437 0.035585247 0.08071234 -0.0877674 0.06179799 -0.019982016 0.07059935 0.04942126 -0.021951126 -0.074585944 -0.028115744 0.08813451 0.042641193 -0.047225624 0.097011656 -0.06090635 0.049538206 -0.04775005 0.1863164 0.1375974 0.11010141 -0.031849377 -0.13306955 0.00096390693 0.09353407 -0.10750797 0.12879191 -0.04419029 -0.05322768 -0.10115692 -0.009721851 0.1651621 -0.16996644 -0.030707464 -0.11072409 0.037968326 0.04523167 -0.21745299 0.1255781 -0.070934124 0.06546542 -0.026451292 0.012077846 0.05110222 0.08377052 -0.113797344 0.10214859 0.15331995 0.067781396 -0.16178252 0.07300888 0.017193576 0.09843731 -0.122020766 0.13281104 0.15635727 -0.01796616 -0.02439729 0.085985735 0.040013783 -0.036003407 0.19205782 0.12339414 0.0991628 0.031758312 -0.09329931 -0.065488055 -0.040591642 -0.093372546 0.05552202 0.018324409 -0.09939449 0.14081159 -0.0029813794 0.019902322 -0.042768247 0.044460837 -0.04017236 -0.23730473 -0.052333347 0.11182956 0.1231188 0.026428876 -0.20190851 0.027190747 -0.070082024 0.07969737 0.05942331 -0.0096285585 0.068728045 0.06451823 -0.04139561 -0.0057194177 -0.12830424 -0.016031688 -0.01875468 -0.069506474 -0.045162182 -0.013582594 -0.05119982 -0.14716224 -0.00092203054 0.034743834 0.14345849 0.07470642 -0.12716483 -0.0435073 -0.0026491361 -0.026302803 0.010404 -0.10860851 0.04539635 0.1390382 -0.027481496 -0.057445955 -0.10678747 -0.023538716 0.1302713 -0.0526776 -0.10864244 0.054147195 0.020586204 0.027620653 -0.012459994 0.093637384 0.08610404 0.054905985
47 0.13586709 -0.114115335 0.029068831 0.08827992 0.0018829015 -0.009451151 0.064700074 -0.11523476 0.06827852 0.08844902 -0.012064641 -0.0273545 -0.09734621 -0.14182544 -0.056379456 -0.13578534 -0.097340465 -0.10169535 0.09636592 0.15672557 0.022127282 0.11587426 0.07564753 -0.06419194 0.090866014 -0.072840996 -0.023580527 -0.10688123 0.06512983 -0.13167083 0.024723634 -0.11180408 0.09289433 -0.070134595 -0.023825463 0.020793056 -0.11036809 0.1575751 -0.00020386999 -0.11210179 -0.18178226 0.053067476 0.14922586 -0.037982933 0.14343478 0.01143493 -0.025415925 -0.044513837 0.07158243 -0.06726498 -0.0269628 -0.052218623 -0.07094739 0.0008799278 -0.027105955 0.0022176434 0.13248856 0.06358221 -0.040997636 0.056416318 -0.033460964 0.047935322 -0.010456532 -0.036639955 -0.07636734 -0.020861385 0.09452104 0.0999334 0.011425223 -0.112322636 -0.058398347 -0.010677225 -0.10601319 0.068011165 -0.02443383 0.08155406 0.09511925 0.063791364 -0.07783312 0.009272169 -0.14816242 0.15123896 0.08433573 0.17502546 -0.1450522 -0.053028487 0.030431803 0.06046604 0.08433093 -0.0548737 -0.07805742 0.046127018 -0.05574169 0.07121909 -0.13184482 -0.16720173 0.014081318 -0.113432735 -0.11480744 -0.074195586 0.07641622 -0.14350516 -0.10753177 0.0061505 0.06020876 -0.047565423 -0.19147386 0.098117195 0.00596258 0.0038156288 -0.012664759 -0.12595616 0.16903602 -0.042685013 -0.01022868 0.09765968 0.08885662 -0.12487026 -0.044894215 0.033691805 -0.011243007 0.07186595 0.16475445 -0.04916866 -0.028845608 0.10973936 -0.12821215 0.08521481
48 0.13689667 0.016189856 0.005895206 -0.081090674 0.04684528 -0.018416174 0.06367669 -0.03421209 -0.0036240364 0.119462796 -0.0968494 0.026509816 0.14967524 -0.026220825 -0.13026835 -0.09724764 -0.046829935 -0.093364686 -0.05290284 -0.056453645 -0.050341263 -0.058785398 -0.05966565 -0.02982479 -0.082775265 0.023713587 0.046013582 0.07966349 -0.06415204 0.07053786 0.098055094 0.054356784 -0.020706411 0.02931587 0.03636307 0.020922448 0.02106233 -0.044096943 0.010652994 0.060286973 -0.102474555 -0.02950442 0.1120786 0.13060702 0.01283797 0.091157034 0.076869674 0.020154843 0.05540741 0.05830728 -0.09719388 -0.091395564 -0.11336302 0.15402184 -0.14507668 -0.11097532 0.19558293 0.04340652 -0.055329017 -0.2108475 -0.05953339 0.031468093 0.16511549 -0.063145995 0.0051692943 0.15728903 0.045511622 0.08030916 -0.029783776 -0.15632188 0.14064117 -0.10457225 -0.039854538 0.050662734 0.06486513 -0.13238859 -0.14081274 0.051828716 -0.070232265 -0.19846718 -0.11834269 -0.10748718 0.12989734 0.02303313 0.06819756 -0.020817006 -0.03303858 0.040100854 0.15205902 -0.10754898 -0.024810728 -0.15534654 -0.12685539 0.10406522 -0.076820046 -0.10998175 -0.13724636 -0.061109465 -0.19692405 -0.062359344 -0.06651317 -0.06549862 -0.03275916 -0.09271928 0.05492577 -0.04804815 -0.031682238 0.054192133 -0.131474 -0.0231517 -0.006774252 -0.16378321 0.005206899 0.023132242 0.115824774 -0.114142366 0.048329473 0.013954944 -0.019257288 0.0978847 0.042371 -0.06119727 0.02431777 0.040583767 -0.07376495 -0.01919162 0.068862386 0.112715594
49 -0.0047678086 0.00843685 -0.058721643 -0.00071761 0.057611946 0.15282707 0.0925999 -0.1317586 -0.06543809 0.0035622332 -0.0026064082 -0.1277559 -0.081922516 -0.1423743 0.12728198 0.013827499 0.016047874 0.013998451 0.10804694 0.13478518 0.07261863 -0.01772178 0.10837411 -0.024805479 0.051888324 0.011628976 0.078141496 -0.027485097 -0.08023103 0.03505415 -0.07222301 -0.08197301 -0.002575047 -0.0258246 0.08647774 -0.099919185 -0.095123895 0.0855183 -0.08603242 0.06341841 -0.09496346 -0.12737703 0.10586262 -0.08802224 0.110108145 0.044913597 0.043300286 -0.14925218 0.18842268 -0.07111707 -0.21764034 0.113249876 -0.069239505 -0.07682492 -0.019585358 -0.06793301 -0.026466839 -0.05071161 0.048943054 0.09610569 0.12264281 0.04702603 0.11064898 -0.032327536 0.039000977 -0.105973154 0.069006614 -0.14869985 0.01982339 -0.09635043 0.044843826 -0.051635753 -0.12254757 -0.12228511 -0.01603588 -0.0057507684 0.108941436 -0.18069819 -0.04373685 -0.19213927 -0.14396675 -0.13403103 0.10669097 0.012636474 -0.09325291 -0.062104307 0.07946807 0.030241352 -0.025282782 0.019614685 0.09526791 0.0074878302 0.04809312 -0.003736854 -0.04674454 -0.11934843 0.045826327 -0.14529079 -0.18968028 -0.014457379 -0.11267399 -0.042366784 0.09950351 -0.14476271 -0.15787928 0.04207255 -0.08016101 -0.07063778 -0.09676189 0.04766132 -0.05933459 -0.07955169 -0.035329457 -0.08307529 0.10415874 -0.04140989 0.08945441 -0.09506767 0.078784235 -0.052246034 0.024746215 -0.066649474 0.07936349 0.01735077 0.07081534 -0.013211616 0.0924485 0.09525676
50 0.062720545 -0.07805316 -0.059798487 -0.12916061 0.18051183 0.15239629 0.01054477 -0.089029565 -0.10078454 0.06902336 -0.053027958 -0.036542956 0.14223866 0.0294142 0.073842905 0.07907751 0.12632385 -0.025893286 -0.03335037 0.043891612 0.16716756 0.06721878 -0.058049135 0.07080732 0.012707099 -0.14381412 -0.12903279 0.0044824844 -0.022195684 0.072930954 -0.042122282 -0.054391272 0.040527403 -0.08685461 -0.056793217 0.09719081 -0.058173016 -0.042009998 -0.16161081 -0.002482238 0.101983994 -0.08601848 0.11387685 -0.032937456 -0.0027555656 0.09517302 0.07686358 0.028746698 0.1481122 -0.08443195 -0.17279255 -0.047748365 -0.1695239 0.10092558 0.060278554 -0.0094154235 0.1857958 -0.10087628 0.024941448 -0.044225812 0.017184064 -0.018164912 0.06074307 0.0641581 0.015551305 -0.08552283 -0.12364204 -0.0631446 -0.039561763 -0.10617573 0.057794783 -0.051727526 -0.02270677 0.10647916 -0.07699819 -0.010513452 0.060009643 0.035572167 -0.15933713 -0.114848554 -0.02167292 0.061775826 -0.052606594 -0.09311234 -0.17684084 -0.06960019 -0.093891524 -0.10372003 0.07485536 0.059269767 -0.07108777 0.04569478 0.05406058 -0.0460309 0.05345074 0.016226156 0.012145801 0.054984346 -0.034651764 -0.11646944 -0.054899924 -0.22541825 -0.08166451 0.019726982 0.03592366 -0.0035664502 0.006514858 -0.061145 -0.106982194 0.02267964 -0.07866682 -0.09671011 0.09222169 0.075930186 0.06613787 -0.07934265 -0.022526292 -0.096750654 0.14402245 0.121918 0.011619316 0.021937914 0.054559514 -0.13281596 0.16236338 -0.08176452 0.05383595 0.20791939
51 0.15647547 0.14392345 -0.12934168 0.09903979 0.018422918 -0.04123656 -0.14074387 -0.056165494 -0.0018340929 -0.021864058 -0.11347629 0.10005109 -0.009724228 -0.13802263 -0.05538589 -0.012946944 0.019983537 0.037765637 0.11021927 -0.0058482927 0.14423534 -0.047633134 -0.045814183 0.0123786805 -0.020075975 0.041136336 -0.0005718193 0.1041201 -0.10019474 -0.07178101 0.1121703 -0.10738091 -0.046329327 -0.12537074 -0.006577418 0.070199855 -0.04481302 0.017235938 0.056142043 -0.08673212 0.0049840477 -0.14946704 0.09948821 0.059755236 0.09241371 0.079041414 0.1133052 -0.05844093 0.12593874 -0.08782258 -0.24263196 -0.13376048 0.027170913 -0.12189435 -0.083167754 0.08258751 -0.052447364 0.108248524 0.008114194 0.019546524 0.09020852 -0.008200059 0.018897125 -0.121447854 -0.034496844 0.13355517 0.0041906345 0.017156493 0.050970122 -0.14544109 -0.024456598 -0.14225061 -0.047571603 0.0265244 0.060907982 0.0821331 0.019353054 -0.018248064 -0.0054158345 -0.100525945 -0.041108098 0.024812495 -0.12673107 -0.008840736 -0.1197411 -0.147735 0.024059532 -0.011040594 -0.06294493 0.07292572 0.17387572 0.063503206 0.017647384 0.10780084 -0.028860593 -0.1093421 -0.17330198 -0.07185908 -0.16274448 -0.14278363 0.10830231 -0.12774938 -0.059130467 -0.011226016 -0.0141525045 0.06866429 -0.026345529 0.0044218237 -0.14079583 0.06424514 -0.031775936 -0.10232875 0.08786208 0.12575097 -0.0068624285 0.05722975 0.09152643 -0.17129488 0.13189739 0.05845446 -0.07138968 -0.05138573 0.06864439 0.1183545 0.052461583 0.111414395 0.038298227 -0.01751664
52 0.12537186 -0.017405529 -0.0771958 0.04382662 -0.061630767 -0.07114098 0.0003564102 -0.14113754 0.008103725 -0.0116988495 -0.05919306 -0.07237618 0.14584534 0.061433475 -0.14578228 0.10777874 -0.03451791 -0.05970008 -0.037915085 0.056476723 0.04853031 0.13775717 -0.08066686 0.008136553 -0.022228321 -0.04289034 0.111667946 -0.08916839 0.06467198 -0.14227888 0.08085992 -0.0720306 0.017711772 -0.086479425 -0.07088193 -0.080738835 -0.023326928 0.0021868637 -0.08250211 -0.08237021 -0.005763979 -0.093731925 0.01657608 -0.123425744 -0.030278211 0.115330555 0.054409795 -0.13544519 0.21127173 0.035792395 -0.19249994 0.01828772 0.011018673 -0.04050318 0.008872844 0.096900776 -0.037200294 0.14665945 -0.09367047 0.03975603 -0.020780131 0.045024477 0.17204466 -0.026517775 0.12041689 0.051254082 -0.07782296 0.0060202354 0.0029750783 -0.061968703 0.09919555 -0.008562208 0.0915457 -0.03526652 -0.02205167 -0.09321497 -0.00956698 0.061884504 -0.14186572 -0.23662458 -0.018503906 -0.08811294 0.06364682 0.0049606725 -0.107388884 -0.006454141 -0.044222616 -0.07388639 0.1655023 0.137678 0.056035087 0.12415827 -0.0017997215 0.10950897 -0.04713945 0.06713676 0.07665649 -0.022810489 -0.13102281 0.055539284 0.071776755 -0.08003817 -0.101384856 -0.017561981 0.0908814 -0.11227227 0.0024697196 0.033535555 0.0988117 0.103722125 -0.0776382 -0.063048504 -0.092937656 -0.08266049 -0.02157318 0.06347453 0.08578623 -0.19923887 0.022319617 0.089446604 -0.122520804 -0.0836099 -0.14226775 -0.07177927 0.12451042 0.057543486 -0.073125705 0.17716363
53 0.11789812 -0.07097459 0.01762783 -0.05133949 0.011310151 0.14984135 0.058722723 -0.013004577 0.009474358 0.061583277 -0.18895358 -0.014669355 0.13609986 -0.025711522 0.119822286 0.059954684 -0.020472873 -0.12627392 -0.0200277 0.15694796 0.08096078 -0.024914533 0.04236833 -0.023538703 -0.17647347 0.13181306 -0.02834454 0.039279453 0.107792296 -0.17052442 -0.014807595 -0.053906906 0.05518598 0.00022238713 -0.11780433 -0.06198025 0.012706266 -0.02671798 -0.17486593 0.0065360237 -0.08052853 -0.053417545 0.13517144 0.116288796 0.12695138 0.059689414 0.07495876 0.087967336 -0.050446466 -0.040302757 -0.046720862 -0.06083651 0.026772454 -0.10152461 -0.07557362 0.056511804 0.12956658 0.045953512 -0.081103176 0.024269385 0.06295584 -0.055469655 0.18757546 -0.04582598 -0.05819522 0.18268962 -0.060418323 -0.047988143 0.026381008 -0.074514315 -0.01950203 -0.022751944 -0.08138843 -0.08427395 0.049569618 -0.041363288 -0.1158868 -0.017182156 -0.04101789 -0.16180487 0.03823089 -0.0040611033 -0.09636269 0.06759398 -0.033974957 -0.01675774 -0.00038405682 0.09305691 0.06555698 -0.059613608 -0.03163251 0.04026747 -0.104104504 0.15358767 -0.13188271 -0.024170285 0.04748866 0.018674752 -0.15079577 -0.04357812 -0.116989374 -0.24051324 -0.16893925 -0.13688387 -0.02112336 -0.044303644 0.04089908 0.118928574 -0.13587733 0.13048358 0.10714204 -0.0101894885 0.04878131 0.027115699 -0.05309662 -0.03116024 -0.026715925 -0.09694574 0.15651849 -0.035934 0.012646572 -0.13711913 -0.03683929 0.05475857 0.15508296 -0.02247444 0.04727724 0.025563983
54 0.099398166 -0.12911803 0.09411432 -0.13468155 -0.035391133 -0.037575778 0.05147139 0.007785085 0.086607076 -0.014565479 -0.16038129 0.026880594 0.03974393 0.004169231 0.07169939 0.021426944 -0.056522578 0.082584985 0.14848693 0.18376021 0.054717533 0.18722841 -0.115630746 0.08972937 0.06734487 -0.031419937 0.055184696 0.0018300182 -0.004614937 -0.124039665 0.034083404 -0.11712283 0.021706317 -0.15840533 -0.101884976 -0.11410636 -0.08959177 -0.046754144 -0.077488154 0.07449275 -0.04025691 -0.14264156 -0.022144618 -0.08922577 0.0128109325 -0.067483395 0.016105533 -0.03193773 0.115252085 -0.023808513 -0.18069951 0.1115755 0.050576642 -0.07985366 0.07659572 0.09233773 0.16700955 0.056385744 -0.008789384 -0.045252196 -0.16355847 -0.02095666 0.020366203 -0.12387047 0.11341366 0.123726435 0.018017085 -0.1014725 0.014480474 -0.16713436 0.13166337 -0.1302652 0.024852844 0.13130893 -0.00044779014 -0.10726501 -0.05676758 0.035916135 -0.07723434 -0.047220107 -0.12118111 -0.0021508837 -0.0951855 -0.008398106 -0.013198241 0.08604741 0.020219376 -0.07457867 0.044867676 -0.07761259 -0.013157462 -0.050052732 0.051004857 0.19109286 -0.058704242 0.06938023 -0.040084485 -0.08411763 0.020140382 -0.054503486 -0.13199274 0.069810405 -0.11703042 -0.045452014 0.0908494 0.024627844 0.03674919 -0.09738369 -0.1047864 -0.05330835 0.09857898 -0.103329465 -0.024237541 0.14892443 0.002719471 -0.12402428 0.099360935 -0.06305757 0.06738833 -0.021866739 0.00026250337 0.056358255 0.12808912 -0.13911526 -0.03691227 -0.036362972 -0.109407194 0.12874267
55 -0.0199232 0.05484313 -0.15766259 0.029131835 -0.067959726 -0.021217447 -0.13171175 0.03441219 -0.023207674 0.07782993 -0.1490308 0.02579436 0.042794082 0.06670295 -0.044951256 -0.044242416 -0.13063504 -0.071136475 0.17388597 0.09410577 0.01743823 0.20754316 -0.024223683 -0.061586645 0.068954855 -0.023551105 0.04890846 -0.0629463 0.00619767 -0.042546008 0.142149 0.072089985 0.034997527 -0.12401221 -0.010222695 0.026701681 -0.024719898 -0.06364673 -0.1832866 -0.072529726 -0.10696694 -0.051869057 0.13198778 0.024833888 -0.10050961 -0.04350967 -0.023378167 -0.04306304 0.08798297 -0.11907758 -0.0059197843 0.00020266516 -0.07024129 0.066301785 -0.001807547 0.083191566 0.15287529 -0.0869538 -0.100637645 0.056466628 -0.12429457 0.046758793 -0.0596113 0.017081223 0.048915345 -0.022533927 0.13725485 -0.0615309 -0.005309123 -0.091164455 0.027566802 0.05344004 -0.002601318 -0.07048481 -0.11913217 -0.1047271 -0.052902326 -0.0012595658 0.044706553 -0.10717176 -0.14120916 0.028572382 0.012376929 -0.022175724 0.014621227 -0.0058792 -0.11264615 -0.121147305 -0.0781996 0.14749378 0.087290876 -0.15476027 0.05637393 0.012655271 0.035088584 -0.123420134 0.015763553 0.09524132 0.018157205 0.024807697 0.08909295 0.0037302414 -0.11902302 0.11851198 0.115181245 -0.099354334 -0.16293366 -0.0008975567 0.06324531 0.0023049514 0.09201454 -0.14953275 -0.017143145 0.16415994 -0.059813198 -0.115985 0.044718094 -0.10623808 0.12471261 0.05141281 -0.2083341 -0.06409793 0.103333645 -0.07756066 0.09023891 -0.070582 -0.0077594486 0.22798029
56 -0.0369379 -0.013843232 0.020705895 -0.016069671 0.017004045 -0.0910735 0.017248344 -0.0539857 0.15391465 0.086153604 0.0050932392 -0.051594675 0.19127847 -0.071172886 0.0047684917 0.09435104 0.053757958 0.028833007 -0.0225299 0.07133421 -0.06937318 0.09442928 0.02688586 0.13114144 -0.028899645 0.0026051225 0.11842856 0.08875718 -0.0744152 0.026484935 0.08881553 -0.05653922 -0.04384775 0.011400619 -0.05991809 -0.031764742 -0.027571801 0.18642792 0.060879253 0.0061403615 -0.014957265 -0.054299146 -0.08861059 0.07503995 0.13142969 0.001382671 0.19109382 -0.106723644 0.18504487 0.0191167 -0.1487789 0.064779006 -0.09260025 0.05581019 0.08037514 0.09128192 0.18658412 -0.068337634 -0.06372465 0.043365378 -0.010058525 0.089457616 0.10309269 -0.009625302 0.031353787 0.03599231 0.0067833965 -0.011871779 0.08105799 -0.16841193 0.020969182 -0.02853436 -0.08256184 -0.14506036 0.10437006 -0.06347273 -0.0036150122 -0.043668583 0.016845167 -0.14944626 -0.088574134 0.013368532 0.08440954 0.013512022 -0.22252236 -0.044671312 0.10324303 0.081842065 0.009993912 0.055296253 -0.06401208 -0.12981988 -0.012820608 0.08350439 -0.18093368 -0.05432774 -0.023699623 -0.0010808145 -0.017068766 -0.13536216 -0.028252093 0.02949398 -0.13666171 0.10445199 0.04442616 -0.09285775 0.061549325 -0.085498504 0.0132586965 0.112131484 0.12509309 0.00074474025 0.04972167 -0.09659262 0.060247477 0.08924513 0.13623017 0.013910519 0.15354134 -0.11848689 -0.05970099 -0.09313324 0.0764365 -0.03361516 -0.040845454 0.064560235 0.15040162 0.23678339
57 -0.004285386 0.0664132 0.00013977966 -0.04867389 -0.110575326 0.018837083 -0.037771612 -0.080471374 -0.06825787 0.18871984 0.053611133 -0.06036199 0.121132016 -0.05607041 0.031977154 -0.10362099 0.027062332 -0.052112978 0.06271024 -0.0024071913 -0.007212267 0.15796565 -0.0968912 -0.097071484 -0.026754005 -0.082957365 0.07881518 0.06773843 -0.07748126 -0.12411244 0.085104674 -0.03146277 0.13578682 -0.1556237 0.005942858 -0.030499281 -0.07737769 0.14741711 -0.01227733 0.017590474 0.08069186 -0.09534154 -0.05804301 0.03867271 -0.028902275 -0.012397128 0.13114402 -0.13513474 0.10405944 0.07519547 -0.11055006 0.046784177 0.035458863 0.039835297 0.017124612 0.14539514 -0.098790795 -0.10025908 0.070389636 0.025460366 -0.014816087 0.033377018 0.110197976 0.03840141 0.10650737 0.019971022 -0.011919126 0.07093663 0.082780465 -0.10972862 0.1705926 0.006905464 0.06258867 -0.043245036 0.056369286 0.0013777541 -0.038672388 0.021556824 -0.08847031 -0.12254675 -0.00905587 0.07292115 -0.0954041 0.09627059 -0.1721819 -0.10777211 -0.11210695 0.07250099 -0.0748529 0.18649265 -0.020768689 -0.031858977 -0.16735674 0.1441542 -0.18240964 -0.07874907 0.055103425 0.019259818 -0.06662531 -0.03399819 -0.15132387 -0.20124201 0.09841679 0.046798535 0.04627756 -0.006662 -0.15311687 0.028590236 0.060990408 -0.09096218 0.12972979 -0.0831757 0.004237424 0.038634755 -0.16328822 0.018112782 0.03509827 0.005024505 0.05999072 -0.06933159 -0.17865781 0.040075578 0.15350182 0.093083665 0.046196315 0.04584544 -0.02513347 0.076989114
58 -0.06596573 0.08342746 -0.042575132 0.11604682 0.01653793 -0.10338144 -0.12445379 -0.09716379 0.06386812 -0.04280327 -0.07900465 0.096479855 0.14173776 -0.031099884 -0.0314069 -0.08438176 0.058696337 0.112106524 -0.041146997 0.010911849 0.039906666 0.041172326 0.017898172 -0.13626039 -0.0135410605 -0.065362215 -0.019465955 0.115900435 0.017352639 0.022850148 0.025894709 -0.06957324 0.032088023 -0.13993602 0.08624312 -0.047493972 0.035544403 0.076578155 -0.12443294 0.0070278076 -0.019436067 -0.04104358 0.04616464 -0.17028067 -0.08693513 -0.008396591 0.041814595 -0.14926441 0.15127389 -0.113014475 -0.23165365 0.11284527 -0.101886965 0.11090587 0.06726077 0.0854373 0.09147131 -0.06722496 0.07362051 0.02781876 0.0601608 -0.032151453 0.1889446 -0.037336808 -0.09818783 0.07860886 -0.043177325 -0.05312185 -0.010450288 -0.100732505 -0.06261729 0.08168257 0.012018604 -0.12276704 0.040799316 0.0056677097 0.063377544 0.021505984 -0.12383695 -0.15800373 -0.1969741 0.0010340738 0.040955987 0.050054744 -0.01595038 -0.07989116 -0.09325835 -0.085429765 0.06418626 -0.10733105 0.07241307 -0.020638814 -0.17117019 -0.03994545 0.0670638 -0.10672208 0.044882957 0.097041585 0.00055570336 0.06162124 -0.031999294 -0.18838322 -0.063875504 -0.01396723 -0.113438815 -0.12917258 -0.18306659 -0.02803096 -0.05633787 -0.1070767 0.08244329 -0.018860305 0.08411993 0.11858477 -0.076841444 -0.13797288 0.029494707 -0.073830366 0.02401083 0.048755743 -0.14101158 -0.09772539 -0.084874414 0.087747775 0.122608975 0.06747772 0.012742525 0.096111365
59 0.04931049 0.14390118 0.043008745 0.088271 0.1469939 -0.023006007 0.01945683 -0.08805191 -0.0676865 0.13474788 0.05665387 -0.17289929 0.02132202 0.060523484 -0.11974279 -0.026735865 -0.08335462 0.021377131 -0.07180186 0.189298 0.045289017 0.16288072 0.06599999 0.04683986 0.017775958 0.11220344 0.046364397 0.09112633 0.0722352 0.039219256 0.14820746 0.10008928 0.0026995924 -0.10768229 -0.052934546 0.043048173 -0.047540184 0.034752645 -0.12262758 -0.052322395 -0.058044538 -0.02777714 0.091114454 0.033179026 0.16615373 -0.03827437 -0.098068796 0.060743365 0.027838109 -0.089774124 -0.06318924 -0.100889 0.036257647 -0.063569956 -0.107981786 -0.09508322 0.101470165 -0.079244845 0.022028252 0.06151523 -0.083669476 -0.073786065 0.07623771 -0.043881964 0.114244424 0.024705073 -0.10801664 -0.017509805 0.014356959 -0.13681729 0.02870134 -0.018547865 0.03992841 -0.043690965 -0.019557893 -0.03387236 -0.020911252 -0.0792151 -0.10162174 -0.22386485 -0.1341712 0.09634858 -0.06655324 0.07221032 -0.04807741 -0.02709801 0.020452488 -0.01748336 0.14820074 -0.075953916 0.025228748 -0.05857198 -0.12601098 0.058360163 -0.10246672 0.08178098 -0.10322703 -0.01382417 -0.02294498 -0.2093474 0.019416325 -0.1870826 -0.12888424 0.1117677 0.0074285986 0.033685178 -0.14087752 0.028670691 -0.21492735 -0.08134622 0.021002235 -0.012895301 -0.046232574 -0.052550144 -0.003204417 0.03990156 -0.08503363 -0.00028416488 0.06931618 -0.15445466 0.0194102 -0.06678132 0.1439876 -0.1369025 0.008448837 0.10419648 0.03952584 0.10844911
60 -0.017984921 0.09836445 -0.034595586 0.057938196 0.05064369 0.036510248 0.015687756 -0.04231715 -0.12597701 0.15552393 -0.14978567 -0.1322661 -0.06408559 -0.011232051 0.059766848 -0.020197716 0.037414595 -0.068889745 0.014850517 0.017639006 0.07141733 0.2597812 -0.043100115 -0.024512937 0.05503547 0.0026417759 0.1127734 0.08045496 0.09221694 0.0012996949 -0.016767083 0.08700311 -0.012559662 -0.15436254 0.14512086 -0.1006889 -0.013205376 0.11425232 -0.024290936 -0.07315334 0.038189624 -0.14669749 -0.07428827 0.08741675 0.067658246 0.118860126 0.020239646 0.008592436 0.12718275 -0.02660333 -0.07348137 -0.04553037 -0.02942398 -0.078032136 -0.0023556638 0.10992448 -0.062330414 -0.1502283 -0.12505105 0.06691987 0.09243488 -0.09884736 0.14488909 -0.18400592 -0.028802782 0.014994442 -0.11966411 -0.08552305 0.0051234737 -0.018167203 -0.010201566 0.08725761 0.04691763 0.04787916 -0.016864331 0.07086281 0.035656784 -0.15453771 0.020421851 -0.15204391 -0.060453106 -0.0822012 -0.0253484 0.06398817 -0.15654437 0.042879045 0.022854436 -0.027959952 0.10260925 -0.00043002976 0.15565611 -0.05719549 -0.11504826 0.09866501 0.06820822 -0.12855192 -0.10203048 -0.106633104 -0.18809794 -0.18854412 -0.0894621 -0.019750483 0.0794693 0.047399085 0.033351026 -0.12977377 -0.098258145 0.052186128 0.014600399 0.017857369 -0.022213243 -0.10751912 -0.05846116 -0.1190161 0.06064928 -0.047010377 0.03443841 -0.10594778 -0.08096065 0.15311858 -0.00060480303 0.02331942 0.036857937 -0.07842745 -0.072859615 -0.046658557 0.008888004 0.1728624
61 0.03739999 0.041134834 -0.10333506 0.07523743 0.051480025 -0.084053054 -0.031115811 0.032087147 -4.6260247e-05 0.2161443 -0.06874296 -0.036419556 0.17984907 -0.03973039 -0.12507407 0.13685378 0.19674118 0.029437039 -0.008589432 0.057245374 0.069802254 0.046022926 -0.025066823 0.058519002 0.09270055 -0.018386418 0.002693264 0.13543373 -0.08681934 0.07745065 0.06865724 -0.042101633 0.117537364 -0.016913574 -0.108897075 0.13181448 -0.12582727 -0.05465194 -0.033352766 -0.0634069 0.10104116 -0.033952255 0.17226572 -0.030513536 0.0324294 -0.016187813 -0.09680309 -0.22339389 0.03706739 0.012558466 0.013101616 -0.105413094 -0.09764335 0.008636649 0.023182545 0.1159963 0.19441842 -0.013266986 -0.028057758 -0.03866748 0.095209554 -0.061357554 0.18609089 0.054062475 -0.02054671 0.18057898 -0.034212757 -0.13702752 -0.1758241 -0.100000545 -0.016424814 0.0027235507 0.042448703 -0.18032947 0.050409243 0.03785643 -0.12312236 -0.121061146 0.0073745647 -0.07144273 -0.06033416 -0.03392702 -0.094174586 0.1350252 -0.05927799 -0.12919927 0.01922467 0.10220833 -0.06404711 0.07660652 0.0806479 0.0125572635 -0.10078442 -0.010638913 0.064855374 -0.0408528 -0.052340075 0.014686241 -0.038767207 -0.07717816 -1.8478626e-05 -0.18564087 -0.13119578 -0.018645313 -0.013226746 -0.059495796 -0.05336612 0.08641388 -0.0031717066 0.04947519 -0.07689863 -0.0034562373 -0.057507675 -0.053765323 0.05500245 -0.115500905 0.15701371 -0.072083354 0.05609633 0.029429464 -0.08830196 -0.08217567 0.06716021 -0.09891806 0.029922094 -0.026155131 -0.121007405 -0.012026631
62 0.04010802 0.04534244 -0.040404145 0.043383285 0.14123745 0.024830092 -0.093329735 -0.08403365 0.07751201 0.1894808 0.04013812 0.053061567 0.14306316 0.0046939463 0.045217827 0.03592749 0.1123512 -0.076500036 0.15057628 0.12839255 -0.08508733 0.02755565 0.082457975 -0.050345022 -0.0406752 0.14866473 0.017364083 -0.040590886 0.06873806 -0.0707229 -0.034423564 0.086581394 -0.05985042 -0.13033903 -0.05767238 -0.070345536 -0.055678 0.10546844 0.036673997 -0.111186534 -0.114053614 0.01694128 -0.015912848 -0.06209546 0.08911772 0.08326371 -0.113665394 0.06624169 0.13187696 -0.04322114 -0.0863133 -0.035538487 -0.02111044 -0.07116116 -0.043682493 0.11938042 0.113727756 -0.13127767 0.060672615 -0.07937177 0.0031496075 -0.021663563 0.1569958 0.110419564 0.08288412 -0.058260463 0.085070774 0.11587663 -0.14374016 -0.18409377 0.14098853 -0.0047875494 0.054062933 -0.028654953 -0.07090197 -0.10673626 -0.11392492 -0.07194928 0.13152678 -0.21638441 -0.16314563 0.09580031 -0.028153215 0.13188034 0.016067533 -0.08336956 0.07207428 -0.05159977 -0.06288596 0.040579394 0.068038926 -0.0021869175 -0.035492484 0.1478256 -0.11995684 -0.020583594 -0.09880738 -0.08758918 -0.09573657 -0.020884862 -0.08923268 -0.08980179 -0.009380457 -0.016092425 0.005440809 0.09763686 -0.054701667 -0.042273413 -0.093046434 0.09906421 -0.070812255 0.016929986 0.085533604 0.05189999 -0.08818664 0.14940295 0.09113103 -0.072741054 0.08704738 -0.04767292 -0.015521823 0.084756084 -0.0070076548 -0.19120306 0.0107906535 0.12868476 0.052159812 0.015336669
63 0.08844015 -0.06999184 -0.084242165 0.09573876 0.07176621 0.018946055 -0.007867853 -0.023799913 0.07433728 0.050146613 -0.08270916 -0.1283525 0.032647733 -0.09552523 -0.032609455 0.03665697 -0.108903505 -0.057912264 0.022992538 0.080590986 0.13573955 -0.031166011 -0.12591074 0.03126531 0.09127985 0.016753584 0.0007873687 -0.103972904 0.10349362 -0.11267633 0.115259044 -0.055161096 0.08857811 -0.22088443 0.1302223 0.048950166 -0.055238463 0.069416046 -0.096606985 -0.12637751 0.085420035 -0.033235665 0.04355951 -0.013509409 0.07560657 0.11809894 -0.09478018 -0.06778581 -0.023660297 -0.07286483 -0.07842099 -0.15293656 -0.12713912 0.08503539 0.04250489 -0.05425141 0.040969834 0.08803555 -0.12925676 0.024710357 0.14147237 -0.08024419 0.118622124 -0.098318264 0.18636824 0.15343931 -0.09596426 -0.08192183 0.11732582 -0.072305165 0.01568589 -0.010041026 0.13372143 0.052182194 0.11235 0.057381626 0.08880281 -0.15341356 0.019222002 -0.1203108 -0.04082257 -0.0005245822 0.06993893 0.033469908 -0.09125375 -0.10907823 0.041208036 -0.014591416 -0.0053481576 -0.08772352 -0.006060504 0.007428637 -0.0048745736 0.17212276 -0.110927284 -0.017477665 -0.021070238 0.04544636 -0.17195661 -0.1474416 -0.10609215 -0.2221805 -0.11677381 -0.12000135 0.06975413 0.07244542 -0.075417235 -0.02783317 -0.07628915 0.050601095 0.1346056 -0.037814576 0.059545748 0.003983659 0.020270811 0.12002418 0.0028918798 -0.10690661 -0.0142300315 -0.10963307 -0.10274526 0.05043533 0.06779179 -0.033069935 0.06732453 0.020915007 0.027790364 0.012691681
64 0.15422186 0.12531294 -0.08385495 -0.14882194 -0.06724946 0.018555198 -0.064294934 -0.0612047 -0.040252645 -0.08051572 0.041794553 -0.06457555 0.1640681 -0.090306394 -0.014099967 0.071659274 -0.032497376 -0.08333392 0.01587155 -0.06266525 0.15116085 0.17773111 -0.1379522 -0.117552884 -0.049411934 -0.076093264 -0.11721861 -0.102208026 0.08998559 -0.07377575 0.019317633 -0.07196078 0.0719198 0.03698469 -0.0013418505 -0.015900126 -0.10066145 0.0831462 -0.14399268 0.002985827 -0.09669514 0.06661813 0.0501455 0.07878625 -0.07549332 0.008709346 0.037008453 -0.06202307 -0.04981655 -0.08315188 -0.16224693 -0.0048145317 0.1032683 -0.03008037 0.08445165 -0.0638507 0.04648456 0.035439614 -0.050398536 -0.12817661 -0.02160417 0.105385855 0.18928853 0.011875843 0.12076077 -0.08308949 -0.082469255 -0.11619248 -0.008621146 -0.12795264 0.07004543 -0.12266563 0.06977903 0.030540287 -0.051363926 -0.0038873816 -0.121324785 0.04002929 -0.079374224 -0.07416991 -0.15940471 -0.106206566 0.07928646 0.023684874 -0.14714463 -0.0896775 0.033520624 -0.09796728 0.16152944 0.0116383415 0.14300367 -0.0072018965 -0.082381904 0.21462476 0.018827021 0.023617063 -0.13641955 -0.12065319 -0.13564193 -0.08510545 0.0013795154 -0.03310473 0.09427611 -0.09412669 -0.049329396 -0.05670386 0.08634055 -0.013340182 0.022635806 -0.063164815 -0.024134345 -0.116129495 0.10257883 0.024026752 0.035813488 -0.11005044 0.082266435 -0.010459878 0.050303552 0.10317213 0.0046992297 0.111331046 -0.08231958 0.05266899 0.028529445 -0.06668854 0.066070706 0.14760771
